
\data\
ngram 1=1946
ngram 2=3241
ngram 3=41

\1-grams:
-1.229708	</s>
-99	<s>	-0.03614133
-3.545678	a	-0.02875276
-3.545678	adaŇč	-0.005852833
-3.545678	ae	-0.02762975
-3.545678	agolo	-0.03210449
-3.545678	agoloson	-0.03210449
-2.504286	ai	-0.2141958
-3.545678	aia…°o	-0.03173335
-3.545678	aia…ĺ	-0.0318571
-3.545678	aikon	-0.03210449
-3.545678	aini	-0.03210449
-3.545678	aiohai	-0.005852833
-3.244648	ait	-0.1710013
-3.244648	aitin	-0.02750479
-3.545678	ait į…ôŇč	-0.03210449
-3.545678	aizen	-0.005852833
-3.545678	aiz…ô	-0.03198081
-3.545678	ak…ôlaŇčz…ô čai	-0.005852833
-3.545678	ak įi	-0.03210449
-3.545678	ak įia	-0.03210449
-3.545678	ak įilanz…ô čai	-0.02600247
-3.545678	ak įinila	-0.0318571
-3.068557	ak įin…ô	-0.03185709
-3.244648	ak įut įaini	-0.03198081
-3.545678	ak į…ôk į…ô…ĺ čain…ôŇčd…ôn	-0.005852833
-3.545678	al	-0.03198081
-3.545678	alsend…ĺo	-0.03198081
-3.545678	al…ôŇč…ôz…ôn	-0.02762975
-3.545678	amalula ča	-0.03136189
-3.545678	amaro	-0.03210449
-3.545678	amma	-0.02687946
-3.545678	amus	-0.03210449
-3.545678	amuŇčs…ôn	-0.03210449
-3.545678	anaga	-0.03061803
-3.545678	anaha…°an	-0.02762975
-3.244648	anai	-0.03148574
-3.545678	anaid…ôŇč	-0.03173335
-3.545678	ane	-0.02974857
-3.545678	anei	-0.03210449
-3.068557	ani	-0.02499803
-3.545678	an…ôi	-0.03210449
-3.545678	apt į…ôn…ôm…ôd…ôŇč	-0.03210449
-3.545678	ar…ô	-0.03210449
-3.545678	asahalamnai	-0.03198081
-3.545678	asaido	-0.03210449
-3.545678	asaŇč	-0.03210449
-3.545678	ase	-0.03198081
-3.545678	asin	-0.03210449
-3.545678	as…ôŇč	-0.03148575
-3.545678	atsa	-0.03210449
-3.545678	au…ĺ…ôilit į…ô…°…ô	-0.03210449
-3.545678	azab	-0.03173335
-3.545678	azaŇča	-0.03036979
-3.545678	aza čai	-0.03210449
-3.545678	aŇč	-0.03210449
-3.545678	aŇčas…ôi	-0.031238
-3.545678	aŇčban…ĺai	-0.03210449
-3.545678	aŇčgan	-0.02762975
-3.545678	aŇčg…ôn	-0.031238
-3.545678	aŇčk į…ô	-0.03210449
-3.545678	aŇčnat įe	-0.03210449
-3.244648	a…°an	-0.02737979
-3.545678	a…°aŇčsonise	-0.03111408
-3.545678	a…°en	-0.03210449
-3.545678	a…°se	-0.03210449
-3.545678	a…°teat įiŇč	-0.031238
-3.545678	a…°…ôn	-0.0318571
-3.545678	a…Ļa	-0.03173335
-2.70058	a…ĺ	-0.06608287
-2.114314	a…ĺa	-0.043645
-3.545678	a…ĺabelnek įae	-0.031238
-3.545678	a…ĺab…ô	-0.02837875
-3.545678	a…ĺaebeni	-0.03210449
-3.244648	a…ĺai	-0.02762975
-3.545678	a…ĺanie če	-0.03210449
-3.545678	a…ĺanligo…ĺanma	-0.0318571
-3.545678	a…ĺan…ôn	-0.03210449
-3.244648	a…ĺas…ô	-0.03198081
-3.545678	a…ĺas…ôŇčz…ôŇča	-0.031238
-3.545678	a…ĺatma	-0.03210449
-3.545678	a…ĺau	-0.03198081
-3.545678	a…ĺaz…ôk į…ôk įo	-0.031238
-3.545678	a…ĺaz…ôt į…ôzaŇča	-0.005852833
-3.244648	a…ĺaz…ôŇč	-0.03173335
-3.545678	a…ĺaz…ôŇčs…ôbik įo	-0.03210449
-3.545678	a…ĺial	-0.03210449
-3.545678	a…ĺk įu	-0.031238
-3.545678	a…ĺne	-0.03049392
-3.244648	a…ĺni	-0.03049392
-3.545678	a…ĺo	-0.03210449
-3.545678	a…ĺ√ß į…ôc įiŇč	-0.005852833
-1.846708	a…ĺ…ô	-0.05356861
-3.545678	a…ĺ…ône čei	-0.03148575
-3.545678	a…ĺ…ônn…ô	-0.03111408
-3.545678	a…ĺ…ôzodi	-0.03198081
-3.545678	a…ĺ…ôz…ô	-0.03210449
-3.244648	a…ĺ…ôz…ôŇč	-0.02750479
-3.545678	a ček įi	-0.02812923
-2.70058	ba	-0.02712969
-3.545678	bahainai	-0.031238
-2.431735	bai	-0.03015124
-3.545678	bain…ôz…ôi	-0.0318571
-3.545678	balb	-0.0318571
-3.545678	balba	-0.02900193
-3.545678	balban…ô	-0.03210449
-3.545678	balbaz…ôŇč	-0.03198081
-3.545678	balk įok įurmai	-0.03210449
-3.545678	balk įulla	-0.03210449
-3.545678	banai	-0.0318571
-3.545678	bap įius	-0.03210449
-3.545678	base	-0.031238
-3.545678	baseŇč	-0.03148575
-3.545678	basu…ĻasuŇčsei	-0.03099012
-3.545678	battaha…ĺbohinai	-0.03061803
-3.545678	bat įahatip įa…ĺ…ô	-0.03210449
-3.545678	bat įi	-0.03210449
-3.545678	bat įibaba…ĺk įua	-0.03198081
-3.545678	bau	-0.02687946
-3.545678	baz…ôŇč…°a	-0.03061803
-3.545678	baŇč	-0.03210449
-3.545678	baŇčk…ĺain	-0.02524936
-3.545678	baŇčnai	-0.03198081
-3.545678	baŇč…°a	-0.03210449
-3.545678	baŇč…°…ĺe	-0.03210449
-3.545678	baŇč…ĺai	-0.03210449
-3.545678	baŇč…ĺaizebula	-0.03099012
-3.545678	ba…ô	-0.02837875
-3.545678	ba…°amiss…ô…Ļ…ôu	-0.03210449
-3.545678	ba…ĺabeti	-0.03210449
-3.545678	ba…ĺa…°	-0.03210449
-3.545678	ba…ĺbo…ô…°an	-0.03198081
-3.545678	ba…ĺk įu	-0.03210449
-3.545678	ba…ĺk įuz…ôn…ôngai	-0.02900193
-3.545678	ba…ĺma…ĺsek įo	-0.03210449
-3.545678	ba…ĺsohonnai	-0.03210449
-3.545678	ba…ĺtan	-0.03210449
-3.545678	ba čni	-0.02762975
-1.977476	be	0.01527736
-3.545678	beai	-0.03198081
-3.545678	beb…ôike	-0.03210449
-3.545678	bediŇč	-0.03210449
-3.545678	beduz…ôd…ô	-0.03198081
-3.545678	beguguz…ô	-0.03210449
-3.545678	beha	-0.03198081
-3.545678	behu	-0.02875276
-3.545678	beh…ôn	-0.031238
-3.545678	beik įis	-0.005852833
-3.545678	beimmizi	-0.03210449
-3.545678	beisiman	-0.03210449
-3.545678	beis…ôn	-0.03160957
-3.545678	beiz…ô	-0.03210449
-3.545678	bek įa	-0.02812923
-3.244648	bek įai	-0.02862812
-3.545678	bek įain…ô	-0.02787956
-3.545678	bek įe	-0.03210449
-3.244648	bek įi	-0.0318571
-3.545678	bek įlai	-0.03210449
-3.545678	bek įluk įuz…ô	-0.03160957
-3.244648	bek įo	-0.03049392
-3.545678	bek įol	-0.03210449
-2.431735	bek įu	-0.08121301
-3.545678	bek įubuzibainaŇč	-0.03210449
-3.545678	bek įuna	-0.03210449
-3.068557	bek įuni	-0.03185709
-3.545678	bek įunumuŇč	-0.03210449
-3.244648	bek įun…ô	-0.0301214
-3.545678	bek įun…ôŇčt į…ôm…ôna	-0.03210449
-3.545678	bek įuz…ôbla	-0.03210449
-3.545678	bek įuz…ôŇč…°a	-0.031238
-3.545678	bek įu…ĺni	-0.03210449
-3.068557	bek į…ô	-0.02600246
-3.545678	bek į…ôi	-0.031238
-3.545678	bek į…ôn…ô	-0.03210449
-3.545678	bek į…ôziŇč	-0.03210449
-3.545678	belena	-0.02962422
-3.545678	belip įenis…ô	-0.03210449
-3.545678	bemoblib	-0.0318571
-3.545678	bemunidi	-0.03210449
-3.545678	bene	-0.03210449
-2.466497	beni	-0.03024562
-3.545678	benia	-0.03210449
-3.545678	benimo	-0.03210449
-3.068557	benip į…ĺai	-0.031238
-3.545678	beniza	-0.005852833
-3.545678	beniz…ôbai	-0.03074209
-3.545678	beo	-0.03210449
-3.545678	beost įaksa	-0.03210449
-3.545678	beoz…ôŇč…°a	-0.03198081
-3.545678	bep įanis…ôŇč	-0.02787956
-3.545678	bep įa…ĺnaisao	-0.03198081
-3.545678	bep įla…ĺ	-0.02524936
-3.545678	bep įomolak įala	-0.03210449
-3.545678	bep įo…ĺmule	-0.03136189
-3.545678	bep į…ô…ĺauba	-0.03210449
-3.545678	besa	-0.02974857
-3.545678	besau ča…ĺi	-0.03210449
-3.545678	besaŇč	-0.03036979
-3.545678	besa…ĺs	-0.03210449
-3.545678	beseba	-0.031238
-3.545678	besebaŇč	-0.02524936
-3.545678	besepe	-0.03210449
-3.545678	besi	-0.03210449
-3.545678	besik	-0.03210449
-3.545678	besima	-0.03210449
-3.545678	besin	-0.03210449
-3.244648	besiŇč	-0.03173335
-3.545678	besiŇčk įala	-0.03210449
-3.244648	beso	-0.1718681
-3.545678	besolak įi	-0.02600247
-3.545678	besum…ôi	-0.03210449
-3.545678	bes…ôba	-0.03210449
-3.545678	bes…ôn	-0.03210449
-3.545678	bes…ôŇčha čamonaz…ôŇč	-0.03210449
-3.244648	beta…ĺi	-0.03148574
-3.545678	beta…ĺko	-0.005852833
-3.545678	beta…ĺtoz…ôŇč…°a	-0.03210449
-3.068557	bet…ĺi	-0.03185709
-3.545678	bet įiŇč	-0.03210449
-3.545678	beu	-0.03198081
-3.545678	bewai	-0.03210449
-3.545678	bezo	-0.03210449
-3.545678	bez…ôsas	-0.03210449
-3.545678	bez…ô čai	-0.03210449
-3.545678	be…°eziŇč	-0.03210449
-3.545678	be…°un…°…ĺani	-0.005852833
-2.767527	be čai	-0.03074209
-3.545678	be čaidis	-0.03210449
-3.545678	be čaiki	-0.03210449
-3.545678	be čaik…ô	-0.031238
-3.068557	be čaiti	-0.03185709
-3.545678	be čaitiz…ôi	-0.03148575
-3.545678	be časuŇča	-0.03210449
-3.545678	bi	-0.03210449
-3.244648	bia	-0.0318571
-3.545678	bibaik įo	-0.03198081
-3.545678	bibaŇči	-0.02524936
-3.545678	bibaŇčk įo	-0.03198081
-3.545678	bideni	-0.03210449
-3.545678	bidenifez…ôŇč	-0.03198081
-3.545678	bidibouna	-0.005852833
-3.545678	bieza čai	-0.03210449
-3.545678	bigiangi…ĺi	-0.03210449
-3.545678	bik įaŇč	-0.03198081
-3.545678	bik įuma	-0.02524936
-3.545678	bik įun…ô	-0.03210449
-3.545678	bik į…ôŇč	-0.03210449
-3.545678	bindeni	-0.02524936
-3.545678	bindesim	-0.03210449
-3.244648	bindo	-0.0318571
-3.545678	biniza	-0.03210449
-3.545678	bint įi	-0.02837875
-3.545678	binuna	-0.0318571
-3.545678	bio	-0.005852833
-3.545678	bioe	-0.03136189
-2.054317	biohai	0.005220857
-3.545678	biohaissa	-0.03210449
-3.545678	biok įai	-0.03210449
-3.545678	biosez…ôŇčnam…ô	-0.03210449
-3.545678	bip įai	-0.03210449
-3.545678	bisim	-0.03210449
-3.545678	bissi	-0.03210449
-3.545678	bis…ôŇčau	-0.03210449
-3.545678	bis čisano	-0.03210449
-3.545678	biti	-0.02887736
-3.545678	bit įiŇč	-0.03198081
-3.545678	bizao	-0.03210449
-3.545678	biz…ôŇč	-0.03210449
-3.545678	biz…ô čo	-0.03210449
-3.545678	bi…ô	-0.02787956
-3.068557	bi…°en	-0.03099011
-3.545678	bi…°ian…°i…ĺi	-0.03210449
-3.545678	bi…ĺia	-0.03210449
-3.545678	blasenbidzi	-0.03210449
-3.545678	bluzu	-0.03210449
-3.244648	bo	-0.03198081
-3.244648	boa	-0.02725476
-3.545678	bobli	-0.03210449
-3.545678	bobliŇčni	-0.03210449
-3.545678	boha…°a	-0.0318571
-3.545678	bohenna	-0.03210449
-3.545678	bohidiŇč	-0.03210449
-3.545678	bok įu	-0.03198081
-3.545678	bol	-0.03210449
-3.545678	bolni	-0.03148575
-3.545678	bonp įu…ĺluhunai…°id…ôŇč	-0.03198081
-3.545678	bonsi	-0.03210449
-3.244648	bosau ča…ĺi	-0.03198081
-3.068557	boŇčnai	-0.03173334
-3.545678	boŇčnip į…ĺai	-0.02949983
-3.545678	boŇčse	-0.03210449
-3.244648	boŇčsi	-0.03198081
-3.545678	boŇčsidai	-0.03210449
-3.545678	boŇč…ôla	-0.02762975
-3.545678	boŇč…°a	-0.03210449
-3.545678	bo…° įe	-0.03198081
-3.545678	bo…ĺla	-0.02762975
-3.545678	bo…ĺo	-0.02762975
-3.545678	bo…ĺs…ô…°…ô	-0.03210449
-3.545678	bo…ĺua	-0.02762975
-3.545678	bubaia	-0.03210449
-3.545678	bugo	-0.03210449
-3.545678	buhi	-0.03160957
-3.545678	buzdail	-0.03198081
-3.545678	buze	-0.03210449
-3.545678	buzek į…ô	-0.02812923
-3.068557	buzi	-0.03185709
-3.545678	buz…ô čai	-0.03210449
-3.244648	buŇča	-0.005721444
-3.545678	buŇčgaiz…ôd…ôŇč	-0.02687946
-3.545678	buŇčgo	-0.03210449
-3.244648	buŇčko…ĺola	-0.03198081
-3.545678	buŇčna	-0.031238
-2.846708	buŇčnai	-0.07943614
-3.545678	buŇčn…ôi	-0.031238
-3.545678	buŇč…°o	-0.03210449
-3.545678	bŇčnaiz…ôd…ôŇč	-0.02837875
-2.943618	b…Ēi	-0.03136189
-3.545678	b…Ēioi	-0.03210449
-3.545678	b…ôhi	-0.0318571
-3.545678	b…ôik į…ô	-0.031238
-3.545678	b…ôk į…ô	-0.03198081
-3.545678	b…ôp į…ô…ĺ	-0.03210449
-3.545678	b įolt	-0.03049392
-1.91221	da	-0.03219628
-3.545678	dabe	-0.03136189
-3.545678	dabei	-0.03210449
-3.545678	dabi	-0.03036979
-2.266925	daha…ĺ	-0.01413819
-3.244648	daha…ĺa	-0.02912646
-3.545678	daha…ĺni	-0.03210449
-3.545678	dairekson	-0.03036979
-3.068557	dai…ĺekli	-0.03185709
-3.068557	dak įot įai	-0.03173334
-3.545678	danak į	-0.03173335
-3.545678	dani	-0.005852833
-3.545678	danse	-0.0318571
-3.545678	dans…ôni	-0.03210449
-3.545678	dapel	-0.03210449
-3.545678	dap įu…ĺ	-0.03210449
-3.545678	dasas…ôoni	-0.03210449
-3.545678	dau	-0.03210449
-3.545678	dazabt įai	-0.03198081
-3.545678	dazabt įaihanname čai	-0.031238
-3.545678	dazabt įei	-0.03198081
-3.244648	daz…ôpt įai	-0.02562608
-3.545678	daz…ôpt į…ôi	-0.0318571
-3.545678	daz…ôŇč	-0.03198081
-3.545678	daŇča	-0.005852833
-3.545678	da…ĺekson	-0.03036979
-3.244648	deden…°ani	-0.03173335
-3.545678	deden…°…ĺani	-0.0318571
-3.545678	dedeŇč…ĺani	-0.03210449
-3.545678	dede…ĺma	-0.03210449
-3.244648	dedin	-0.03198081
-3.545678	dedine…°eziz…ôŇč	-0.03210449
-3.545678	deding…ĺa	-0.03210449
-3.545678	dedinnaij…ô…ĺ	-0.03136189
-3.068557	dedin…°…ĺani	-0.03024561
-3.545678	dediŇč…°…ĺani	-0.03198081
-3.244648	dediŇč…ĺani	-0.03198081
-3.545678	ded…ôn	-0.03210449
-3.545678	deit…ôn	-0.03210449
-3.545678	denin…°…ĺani	-0.03210449
-3.545678	de…°in	-0.03210449
-2.545678	di	-0.109297
-3.545678	dia…°…ĺam	-0.03210449
-3.545678	dia…°…ĺamni	-0.03210449
-3.244648	dibuŇč	-0.03198081
-3.545678	didau	-0.03173335
-3.545678	did…ôm	-0.03210449
-3.545678	dieg…ĺam	-0.03210449
-3.545678	difa…ĺens	-0.03210449
-3.545678	dif…ô…ĺens	-0.02687946
-3.244648	dihun	-0.02675428
-3.545678	diksei	-0.03210449
-3.545678	din√ß įiŇčeize	-0.02600247
-3.545678	din…ôŇčt į…ôz…ô	-0.03136189
-3.545678	dissa	-0.03210449
-3.545678	distens	-0.03136189
-3.545678	dit įiadi	-0.03210449
-3.545678	diu	-0.03136189
-3.545678	divaid	-0.03061803
-3.545678	diziŇčae	-0.02600247
-3.545678	diz…ôi	-0.03210449
-3.244648	di čaid	-0.1705053
-3.545678	doa	-0.03210449
-3.244648	doblait įi	-0.0301214
-3.545678	doblait įini	-0.03210449
-2.943618	dobliu	-0.08895633
-3.545678	dot	-0.03210449
-3.545678	doziz…ô	-0.03210449
-3.545678	dusaŇč	-0.03160957
-3.545678	dusumi	-0.03210449
-3.545678	dusunibeo	-0.02762975
-3.545678	d…ôm	-0.0318571
-3.545678	d…ônb…ôi	-0.03210449
-3.244648	d…ôŇča	-0.005721444
-3.545678	d…ôŇčs…ô	-0.03210449
-3.545678	d įattu	-0.02600247
-3.545678	d įattup į…ô…ĺ…ô	-0.03210449
-3.545678	d įatu	-0.03198081
-3.545678	d įatup į…ô…ĺ…ôuma	-0.03210449
-2.70058	e	-0.02524935
-3.545678	eba	-0.03210449
-3.545678	edi	-0.03210449
-3.545678	edna…ĺ	-0.03136189
-3.545678	ef…ĺaiz…ôŇč	-0.03210449
-3.545678	eihenadoŇč	-0.03086612
-3.545678	eis…ôŇč	-0.03160957
-3.244648	eks	-0.03148574
-3.244648	eksis	-0.03049392
-3.545678	eksk įalamnai	-0.03210449
-3.545678	ekui	-0.03210449
-3.545678	ek įana	-0.03160957
-3.545678	ek įe…ĺok įame	-0.03210449
-3.545678	ek įin…ôn…ô	-0.03210449
-3.545678	ek įu	-0.02787956
-3.244648	el	-0.02436907
-3.545678	ela	-0.03210449
-3.545678	elect…ĺik	-0.0318571
-3.545678	elect…ĺot įaid	-0.03136189
-3.545678	elekt…ĺo	-0.03210449
-3.545678	elekt…ĺon	-0.02925095
-3.545678	el…ôn…ôz…ôŇč	-0.03210449
-3.545678	em	-0.03136189
-3.545678	emez…ônz…ôŇč	-0.03210449
-3.244648	emita…ĺ	-0.03148574
-3.545678	emit…ô…ĺ	-0.03210449
-3.545678	empia…ĺ	-0.02600247
-3.244648	empie…ĺ	-0.005590019
-2.315229	empija…ĺ	0.001802769
-3.068557	empija…ĺ…ô	-0.1199456
-3.545678	en	-0.0318571
-3.545678	end…ĺi	-0.03210449
-3.545678	ene	-0.0318571
-3.545678	eni	-0.03198081
-3.545678	enoija…ĺ	-0.02687946
-3.545678	ens…ô…ĺk į…ômona	-0.03210449
-3.545678	enta…ĺ…ô	-0.03210449
-3.545678	ent įak įo	-0.03210449
-3.244648	ent įani	-0.1718681
-3.545678	ent įaŇč	-0.02762975
-3.545678	en…ôŇč…°an…ôŇčz…ô ča	-0.02812923
-3.545678	es	-0.03210449
-3.545678	esai	-0.03210449
-3.545678	esai…ĺaŇč	-0.03210449
-2.70058	ese	-0.03136189
-3.545678	esse	-0.03210449
-3.545678	eulibk įau	-0.02887736
-3.545678	eus	-0.03210449
-3.545678	eze	-0.03198081
-3.545678	eziz…ô	-0.02524936
-3.545678	e…°zamp…ôl	-0.03210449
-3.068557	e…ĺia	-0.02474655
-3.545678	e…ĺiasim	-0.03210449
-3.068557	e ča	-0.03185709
-3.545678	e čaibisin	-0.03210449
-3.545678	e če	-0.02925095
-2.943618	fai č	-0.09420843
-3.545678	fan…ôŇčz…ô	-0.02524936
-3.545678	fa…ĺa…°	-0.03198081
-3.545678	feisbuk ču	-0.03210449
-3.545678	femuze	-0.005852833
-3.545678	fidam	-0.005852833
-3.545678	fo…ĺaima	-0.03210449
-3.545678	fo…ĺasi	-0.03210449
-3.244648	fo…ĺmula	-0.03198081
-3.545678	f…ô…Ļim…ôini	-0.03210449
-3.545678	f…ô…ĺ…ô	-0.03210449
-3.545678	f…ĺai	-0.02900193
-3.545678	gadanai	-0.03210449
-3.545678	gadan…ôiŇč	-0.03210449
-3.545678	gan…ôŇčt į…ôn…ôz…ô	-0.03198081
-3.545678	gasimba…ĺs…ôn	-0.03210449
-3.545678	gaz…ô	-0.03210449
-3.545678	gaz…ôz…ô	-0.03173335
-3.545678	gaz…ôŇča	-0.03210449
-3.545678	ge	-0.03210449
-3.545678	gehunanam	-0.005852833
-3.545678	gelaz…ôŇč	-0.03210449
-3.545678	gesin	-0.03210449
-3.545678	geze	-0.03160957
-3.545678	gezesei	-0.03061803
-3.545678	gezez…ôŇč	-0.03198081
-3.545678	gi	-0.03210449
-3.545678	giz…ôz…ôŇč	-0.03160957
-3.545678	giz…ôŇč…ô	-0.03210449
-3.545678	gi čeon	-0.03210449
-3.545678	godijamma	-0.03210449
-3.545678	gola	-0.03210449
-3.545678	gonaiz…ôd…ôŇč	-0.005852833
-3.545678	gozaibla	-0.0318571
-3.545678	goŇčse	-0.02524936
-3.545678	gubun	-0.02762975
-3.545678	gunibo	-0.03210449
-3.545678	gusununado	-0.03210449
-3.545678	g…ô	-0.02787956
-3.545678	g…ôl…ôzi	-0.03210449
-3.545678	g…ôn…ôn…ôt į…ôk į…ôlaŇča	-0.0318571
-3.545678	g…ôso	-0.0318571
-3.545678	g…ôss…ôs…ô	-0.005852833
-3.545678	g…ôs…ôlage	-0.03210449
-3.545678	g…ôs…ôlahi	-0.02600247
-3.545678	g…ôs…ôla…ĺieza	-0.03173335
-3.545678	g…ôt į…ôŇč	-0.03210449
-3.545678	g…ô…Ļli	-0.03210449
-3.545678	g…ô…ĺl…ôn…ôz…ôŇč	-0.03210449
-3.545678	g…ĺap į…ô	-0.03210449
-3.545678	g…ĺap į…ô…ĺ	-0.005852833
-3.545678	ha	-0.02962422
-3.545678	habab…Ē…°…Ēbim…Ē	-0.03210449
-3.244648	haban…ô	-0.1718681
-3.545678	hae	-0.005852833
-3.545678	hagon	-0.02762975
-3.545678	haie	-0.005852833
-3.545678	haig…ôn	-0.031238
-3.545678	hakak įaipo	-0.03210449
-3.545678	hala	-0.02787956
-3.545678	hala…°…ô	-0.03198081
-3.545678	hamani	-0.005852833
-3.545678	ham…ôk į…ô	-0.0318571
-3.545678	han	-0.02762975
-3.244648	hand…ĺed	-0.0318571
-3.545678	hanti	-0.03210449
-3.545678	hant įi	-0.031238
-3.244648	hant įiamn…ôi	-0.1711253
-3.545678	haua	-0.03210449
-3.545678	haŇčai	-0.03210449
-3.545678	haŇčaŇč	-0.03210449
-3.545678	haŇčk įo	-0.03198081
-3.068557	haŇčnai	-0.03160956
-3.545678	ha…°…ôn	-0.02974857
-3.545678	ha…ĺa	-0.03160957
-3.545678	ha…ĺabosusiŇčz…ôŇč…°a	-0.031238
-3.545678	ha…ĺazebla	-0.005852833
-2.642588	ha ča	-0.02562608
-3.545678	ha čajano	-0.03198081
-3.545678	ha čak įauz…ôŇčga	-0.02887736
-3.545678	hent įa	-0.03210449
-3.545678	heŇčazeŇčz…ôl…ô	-0.03210449
-2.39955	heŇčt įa	-0.01841192
-3.545678	heŇčt įai	-0.03210449
-3.545678	heŇčt įaia	-0.03210449
-3.545678	heŇčt įaŇčanain…ô	-0.03210449
-3.545678	himalai…°e	-0.03210449
-3.545678	hoise	-0.03198081
-3.545678	holanna	-0.0318571
-3.545678	homesonli	-0.03210449
-3.545678	homit ča	-0.03210449
-3.545678	hona	-0.03210449
-3.545678	honaidoŇč	-0.03210449
-3.545678	honaieze	-0.005852833
-3.545678	hoŇčnamuda	-0.03160957
-3.545678	hunda	-0.03210449
-3.545678	husunai	-0.03061803
-3.545678	hu…ĺh…ôn…ôza	-0.005852833
-3.545678	h…ô	-0.03210449
-3.545678	h…ôn	-0.03210449
-3.545678	h…ônae	-0.005852833
-3.545678	h…ônajan…ô	-0.02762975
-3.545678	h…ôn…ôŇčzaŇčnaizeb…ô	-0.02875276
-3.545678	h…ôz…ôŇčga	-0.03210449
-3.545678	h…ôŇča	-0.03210449
-3.244648	h…ôŇčna	-0.03198081
-3.545678	h…ôŇčnai	-0.03210449
-3.545678	h…ôŇč…ônalonio	-0.03210449
-3.545678	h…ôŇč…°a	-0.02687946
-3.545678	ie	-0.03049392
-3.545678	iema	-0.03210449
-2.39955	ikual	-1.172242
-3.545678	ikualtu	-0.03210449
-3.545678	ikuas…ôn	-0.03198081
-3.545678	ikuel	-0.02837875
-3.545678	ikuenaga	-0.03210449
-3.545678	ikues…ôn	-0.031238
-3.545678	iku…ôs…ôn	-0.03160957
-3.545678	ilectrik	-0.03198081
-3.545678	ilektrik	-0.03198081
-3.545678	ilekt…ĺo…ĺo	-0.03173335
-2.846708	imita…ĺ	-0.03074209
-3.545678	imit…ô…ĺ	-0.03210449
-3.545678	impiz…ô…°…ôn	-0.0318571
-3.068557	impo…ĺten	-0.00545855
-3.545678	impo…ĺt…ôn	-0.005852833
-3.244648	ina	-0.02512371
-3.545678	indiksiŇč	-0.0318571
-3.545678	ine	-0.03198081
-3.545678	inizamap įu	-0.02787956
-3.545678	inkez…ô…°anna	-0.03198081
-3.244648	inkiza…°…ôn	-0.005721444
-3.545678	inkiz…ôŇč…°on	-0.03148575
-3.545678	inkuizaie	-0.0318571
-3.244648	inkuizalamnai	-0.02949983
-3.545678	intimezea	-0.03111408
-3.545678	intisin	-0.03210449
-3.545678	intizalamn…ô	-0.03210449
-2.943618	intu	-0.09383538
-3.545678	inv…ôrsli	-0.03198081
-3.545678	inv…ô…ĺsli	-0.03210449
-3.545678	in…ôiz…ôŇč	-0.02949983
-3.545678	in č…ô…ĺs	-0.03210449
-3.545678	ipsani	-0.03210449
-3.244648	is	-0.1717443
-3.545678	issi	-0.02787956
-3.545678	issinamani	-0.03210449
-3.545678	istoa	-0.03210449
-3.545678	itopip į…ô…ĺ…ô	-0.03210449
-3.545678	ittalini	-0.0318571
-3.244648	iunit	-0.03198081
-3.545678	ius	-0.03210449
-3.545678	iva	-0.03049392
-3.244648	iz	-0.005458554
-3.244648	iŇč…°…ĺazi	-0.03136189
-3.545678	iŇč…ĺaz…ô	-0.005852833
-3.244648	je	-0.0318571
-2.846708	johai	-0.02146408
-3.545678	kamek įlaŇč…ôn	-0.03210449
-3.545678	kaneks…ôŇča	-0.005852833
-3.545678	kanek įam…ô	-0.03210449
-3.244648	kanek įlaoke	-0.005721444
-3.244648	karen	-0.1711253
-3.244648	ka…Ļen	-0.03198081
-3.545678	ka…ĺeks…ôn	-0.03210449
-3.545678	ka…ĺem	-0.005852833
-2.369587	ka…ĺen	-0.03960686
-3.545678	ka…ĺenn…ô	-0.03210449
-3.244648	ke	-0.004009807
-3.244648	kelkuleson	-0.03198081
-3.545678	keta	-0.03210449
-3.545678	keziz…ôŇč	-0.005852833
-3.545678	kibaiz…ôŇč	-0.03198081
-3.545678	kibi…°io	-0.03210449
-3.545678	kiobek įo	-0.0318571
-2.504286	kiu	-0.09324329
-3.545678	ko	-0.03210449
-3.545678	koa	-0.02787956
-3.545678	kolom	-0.03086612
-3.545678	kolomam	-0.03210449
-3.545678	kolom…ôn…ô	-0.02887736
-3.244648	kolsae	-0.02260313
-3.545678	kolum	-0.03210449
-3.545678	kom	-0.03210449
-3.545678	koma	-0.03210449
-3.545678	komplisen	-0.0318571
-3.545678	komplit	-0.03198081
-3.545678	konaik į…ôlaŇč…°…ôn	-0.03210449
-3.545678	konak įan…ôm	-0.03210449
-3.545678	konse	-0.0318571
-3.545678	kontai	-0.005852833
-3.244648	kont įa	-0.03198081
-2.767527	kont įai	-0.02800441
-2.846708	kont įaini	-0.02159079
-3.545678	kont įaio	-0.03210449
-3.545678	kont įe	-0.03136189
-3.545678	konwak įalam	-0.03160957
-3.545678	kopi	-0.03210449
-3.545678	kos…ôn	-0.03210449
-3.545678	ko…ĺosen	-0.03210449
-3.545678	kui	-0.03210449
-3.545678	kuiz…ôhana	-0.03198081
-3.545678	kuku…ĺm…ôin…ô	-0.02600247
-3.545678	kullizaha	-0.03210449
-3.545678	kulmaeti	-0.03210449
-3.545678	kulom	-0.03210449
-3.244648	kulum	-0.02875276
-3.545678	kulumb…ô	-0.03210449
-3.545678	kulumz…ôŇč	-0.02962422
-3.545678	kunt įeini	-0.03210449
-3.545678	kusno	-0.03210449
-3.545678	kusus…ôŇčga	-0.03148575
-3.545678	ku…ĺo…ĺo	-0.02762975
-3.545678	ku…ĺu	-0.03086612
-3.545678	k…Ē	-0.03210449
-3.244648	k…Ēnfiuza	-0.02675428
-3.545678	k…Ēntai	-0.03210449
-3.545678	k…Ēnt įai	-0.005852833
-3.545678	k…ô	-0.02962422
-3.545678	k…ôpi	-0.03210449
-3.545678	k…Į	-0.02787956
-3.545678	k įaik įa	-0.03210449
-3.545678	k įai…ô…ĺ	-0.005852833
-3.545678	k įai ča	-0.03210449
-3.545678	k įalamna	-0.0318571
-3.545678	k įalamnaliŇč	-0.03210449
-3.545678	k įalamnan	-0.03173335
-3.545678	k įalan…ôŇč	-0.031238
-3.545678	k įama	-0.0318571
-3.244648	k įaman	-0.004273576
-3.545678	k įamane	-0.03210449
-3.068557	k įamani	-0.1130865
-3.545678	k įamanimoz…ôŇč	-0.03210449
-3.545678	k įandehiki	-0.03210449
-3.545678	k įaneik į…ôl…ômn…ô	-0.03210449
-3.545678	k įantipu…ĺk į…ô	-0.0318571
-2.767527	k įant įi	-0.06769171
-3.545678	k įant įip įu…ĺ	-0.0318571
-3.545678	k įa čai	-0.03210449
-3.545678	k įeloma	-0.005852833
-3.545678	k įeze	-0.03210449
-3.545678	k įilin…ôn…ôŇča	-0.03210449
-3.545678	k įinaik…ô	-0.03210449
-3.545678	k įizep įu…ĺ	-0.031238
-3.545678	k įiz…ô	-0.03210449
-3.545678	k įiz…ôz…ôŇča	-0.005852833
-2.943618	k įo	0.003575739
-3.244648	k įoak įi	-0.03198081
-3.545678	k įobih…ôŇč…°a	-0.0318571
-3.545678	k įobo	-0.03210449
-3.545678	k įobona	-0.03210449
-3.545678	k įola	-0.03210449
-3.545678	k įolana	-0.03210449
-3.068557	k įom	-0.03185709
-3.545678	k įoma	-0.03210449
-3.545678	k įommili	-0.03012141
-3.545678	k įon	-0.03210449
-3.068557	k įont įai	-0.00453718
-3.545678	k įont įaini	-0.03210449
-3.545678	k įop įuz…ôŇčnaize	-0.03210449
-3.545678	k įoze	-0.03210449
-3.545678	k įozuŇčada	-0.03086612
-3.545678	k įo…ĺes…ô	-0.02812923
-3.244648	k įo…ĺon	-0.02875276
-3.244648	k įo…ĺoni	-0.02937541
-3.244648	k įo…ĺonip į…ĺai	-0.03198081
-3.545678	k įo…ĺosim	-0.03061803
-3.545678	k įo…ĺsim	-0.03061803
-3.545678	k įo…ĺ…ôis…ô	-0.02962422
-3.545678	k įu	-0.03210449
-3.545678	k įubt įe	-0.03210449
-3.545678	k įubut įamna	-0.03210449
-3.545678	k įufu…ĺmano	-0.03210449
-3.545678	k įuliŇčnai	-0.03086612
-3.244648	k įulum	-0.03061802
-3.545678	k įuz…ôŇč…°a	-0.03210449
-3.545678	k įuŇčnaz…ôda	-0.02949983
-3.545678	k įu…ĺi…ĺnado	-0.03210449
-3.545678	k įu…ĺman…ô	-0.03210449
-3.545678	k įu…ĺum	-0.02949983
-3.545678	k įu…ĺuŇč	-0.02949983
-3.068557	k į…ô	-0.02837874
-3.545678	k į…ôh…ôz…ô čai	-0.03198081
-3.545678	k į…ôin…ô	-0.02837875
-3.545678	k į…ôk į…ôi	-0.03210449
-3.545678	k į…ôlae	-0.03198081
-3.545678	k į…ôl…ôm	-0.03210449
-3.545678	k į…ôl…ômla	-0.02837875
-3.545678	k į…ôl…ômn…ôi	-0.02762975
-3.244648	k į…ôl…ôŇč	-0.005195505
-3.545678	k į…ôl…ôŇčn…ô…°an	-0.02687946
-3.545678	k į…ômanimauniz…ôŇčgan	-0.03210449
-3.545678	k į…ôna	-0.031238
-3.545678	k į…ônk įe	-0.03210449
-3.545678	k į…ôn…ômu	-0.03210449
-3.545678	k į…ôn…ôz…ôi	-0.03198081
-3.545678	k į…ôn…ôŇčn…ônau	-0.02762975
-3.545678	k į…ôn…ôŇčs…ô	-0.02812923
-3.545678	k į…ôt įai	-0.03099012
-3.545678	k į…ôz…ôŇča	-0.03210449
-3.244648	k į…ôz…ôŇč…°a	-0.02424317
-3.545678	k į…ô…ĺni	-0.0318571
-3.068557	k į…ô čai	-0.02775466
-3.545678	k į…ô čaz…ôŇč	-0.0318571
-2.943618	la	-0.02650382
-3.545678	laba	-0.03210449
-3.545678	labaŇč…°aio	-0.03210449
-3.545678	labod…ôŇč	-0.02837875
-3.545678	ladaŇč	-0.02812923
-3.545678	lad…ô	-0.02600247
-3.545678	lage	-0.03210449
-3.545678	lais	-0.03198081
-3.545678	lajo	-0.03210449
-3.244648	laki	-0.005721444
-3.545678	lakin	-0.03210449
-3.545678	lak įa čai	-0.03148575
-3.545678	lak įe	-0.03210449
-3.068557	lak įi	-0.03148574
-3.545678	lak įim	-0.03198081
-3.545678	lak įi…°…ôn	-0.03173335
-3.545678	lama	-0.03210449
-3.545678	lamak įo	-0.02524936
-3.545678	lamdem	-0.03136189
-3.545678	lamn…ô	-0.03061803
-3.244648	lana	-0.03198081
-3.068557	lanae	-0.02235026
-3.545678	lanazadaŇč	-0.02887736
-3.545678	lanaŇč ča	-0.03148575
-3.545678	laod…ôn	-0.03210449
-3.545678	laop įaini	-0.03210449
-3.545678	laot įaini	-0.03210449
-3.545678	laot įaizudi	-0.03210449
-3.545678	laot įaiz…ô…°…ôn	-0.02762975
-3.545678	laot įai…°…ôn	-0.03173335
-3.545678	laot įeini	-0.03210449
-3.545678	laot į…ôŇčs…ôz…ôŇč	-0.03210449
-3.244648	lasun	-0.03198081
-3.545678	laŇčga	-0.03210449
-3.545678	laŇč…ôla	-0.005852833
-3.545678	laŇč…°a	-0.03210449
-3.244648	la…°e	-0.1687646
-3.545678	la…°i	-0.005852833
-3.545678	la…ĺaz…ôŇčgan	-0.005852833
-3.545678	la čona ča č	-0.03210449
-3.545678	la č…ôd…ô	-0.03210449
-3.545678	lea	-0.03210449
-3.545678	lednamenan…ô	-0.03210449
-3.545678	lek įa	-0.03210449
-3.545678	lenahaŇčna	-0.005852833
-3.545678	len…ô	-0.005852833
-3.545678	le…Ļisu…ĻuŇč	-0.03198081
-3.545678	le čnan…ô	-0.03210449
-3.545678	libonai	-0.03210449
-3.545678	lige	-0.03210449
-3.545678	ligele	-0.03198081
-3.068557	lina	-0.005590015
-3.545678	linaie	-0.02600247
-3.545678	linna	-0.03136189
-3.545678	linn…ô	-0.03198081
-3.545678	lin…ô	-0.03210449
-3.545678	lionadehaŇčna…°a	-0.02600247
-3.545678	liŇčk į…ôaidoŇčo	-0.03198081
-3.545678	liŇčk į…ônaidoŇčo	-0.03210449
-3.545678	lo	-0.03210449
-3.545678	lobi	-0.03210449
-3.545678	loŇča	-0.03210449
-3.244648	l…ô	-0.03173335
-3.545678	l…ôd…ô	-0.03210449
-3.244648	l…ô…°…ô	-0.005590019
-3.545678	l…ô…°…ôn	-0.03074209
-3.545678	l…ô…°…ô…ĺdinei	-0.005852833
-2.466497	ma	0.007351052
-3.545678	mabai	-0.03160957
-3.545678	mabaide	-0.02762975
-3.545678	mablababna	-0.03210449
-3.545678	mablabap įius	-0.03210449
-3.545678	mabla ča	-0.03210449
-3.545678	maema	-0.005852833
-3.545678	maha…ĺauma	-0.03148575
-3.545678	maheni	-0.03210449
-3.545678	mah…Ē…Ļmae	-0.005852833
-3.545678	mai	-0.03210449
-2.943618	maik…ĺo	-0.2627799
-2.767527	mainas	-0.06956933
-3.244648	main…ôs	-0.031238
-3.545678	mak į…ôoŇča	-0.03210449
-3.545678	mak į…ôz…ôz…ôŇč	-0.0318571
-3.545678	mak į…ĺazino	-0.005852833
-3.545678	malabononaŇča	-0.005852833
-3.545678	malinnae…ĺ	-0.02925095
-3.545678	mamaiti	-0.005852833
-3.545678	mamaneŇča	-0.03198081
-3.545678	mamonamon	-0.03086612
-3.545678	mamu	-0.03210449
-3.545678	mamuzi	-0.03210449
-3.545678	mamuzia	-0.005852833
-3.545678	mamuz…ôŇč…°a	-0.02524936
-3.545678	mam…ônd…ôŇč	-0.03136189
-3.545678	mam…ôneiz…ôŇč	-0.03160957
-3.545678	mam…ôŇčn…ôi	-0.0318571
-3.545678	mana	-0.03210449
-3.545678	manahnei	-0.03198081
-3.545678	manak įai	-0.02837875
-3.545678	manam	-0.02837875
-2.39955	mane	-0.01706436
-3.545678	manei	-0.005852833
-2.642588	manema	-0.02322004
-3.545678	manez…ô čai	-0.02524936
-3.545678	mani	-0.03198081
-3.545678	mank į…ô…ĺ…ôn	-0.03210449
-3.545678	manne	-0.03210449
-3.068557	manse	-0.0293754
-3.545678	mansemuak į…ô	-0.03210449
-3.545678	man…ô	-0.03210449
-3.545678	man…ôz…ôŇč	-0.03136189
-3.545678	mao	-0.03210449
-3.545678	maon…ô…°…ôn…ô	-0.03210449
-3.545678	masno	-0.03210449
-3.545678	mas…ôŇč	-0.03210449
-3.545678	mas…ôŇčnai	-0.03210449
-3.545678	mas…ôŇčoi	-0.03148575
-3.545678	mat į…ôŇčan	-0.03210449
-3.244648	mau	-0.03198081
-3.545678	mauk įaunad…ôŇč	-0.02687946
-3.545678	maulaba	-0.005852833
-3.545678	maulaoas…ôn…ôn	-0.03061803
-3.545678	maulit įaod…ôn	-0.03210449
-3.545678	maunai	-0.03210449
-3.545678	maunaŇč…°on	-0.03210449
-3.545678	maun…ôŇčt į…ôn…ô	-0.03210449
-3.545678	maup įuŇčnai	-0.03198081
-3.545678	maup į…ôim…ôz…ô	-0.03173335
-3.545678	maz	-0.0318571
-3.244648	maz…ôg…ôn	-0.002688558
-3.545678	maz…ôŇčg…ôn	-0.03210449
-3.545678	maŇčbai	-0.03210449
-3.545678	maŇčnai	-0.03198081
-3.545678	maŇčn…ôi	-0.03210449
-3.545678	ma…°anna…°an	-0.03210449
-3.545678	ma…ĺi	-0.03210449
-3.545678	ma…ĺk	-0.03210449
-3.545678	ma…ĺk įoa	-0.03198081
-3.545678	ma…ĺzaia	-0.03099012
-3.545678	ma…ĺ…ô	-0.03210449
-3.545678	ma ča	-0.03210449
-3.545678	ma čaik į…ôna	-0.03210449
-3.545678	ma čait	-0.03210449
-3.545678	ma čana…°an	-0.03210449
-3.545678	ma čnai	-0.031238
-3.545678	ma čnao	-0.03198081
-3.545678	me	-0.03012141
-3.545678	mean…ôi	-0.005852833
-3.244648	meisan	-0.03111408
-3.545678	meize	-0.03210449
-3.545678	meiz…ôŇčga	-0.03160957
-3.545678	mek įneibei	-0.03210449
-3.545678	mek įu	-0.02900193
-3.545678	memeze	-0.03210449
-3.545678	mena	-0.03210449
-3.545678	menehai	-0.03210449
-3.545678	menib…ôi…ĺ…ôz…ôŇč…°a	-0.03210449
-3.545678	menifai	-0.0318571
-2.943618	menif…ĺai	-0.02974856
-2.943618	menip į…ĺai	-0.02298215
-3.545678	meniu…ĺ	-0.03210449
-3.244648	menp į…ĺai	-0.03198081
-3.545678	mens…ô	-0.02875276
-3.244648	menup į…ĺai	-0.02862812
-3.244648	men…ôp į…ĺai	-0.02575158
-3.244648	meo	-0.03198081
-3.545678	mesaŇč	-0.03210449
-3.545678	mesiŇčmalana	-0.03210449
-3.545678	meta…ĺ	-0.03210449
-3.545678	mets	-0.03210449
-3.545678	met…ĺ	-0.03210449
-3.545678	met…ĺi	-0.03210449
-3.545678	met įi ča	-0.03148575
-3.545678	mevai	-0.03210449
-3.545678	mezaie	-0.005852833
-3.545678	meze	-0.03061803
-3.545678	mezoi	-0.031238
-3.244648	meŇču	-0.03173335
-3.545678	me…ĺi	-0.03210449
-2.70058	me čai	-0.031238
-3.545678	me čama	-0.03173335
-3.545678	me če	-0.03210449
-3.545678	mi	-0.0318571
-3.545678	mibaŇče	-0.02987288
-3.545678	mik įiziŇči	-0.03173335
-2.642588	mili	-0.3941183
-3.545678	mininsuŇčni	-0.03173335
-3.244648	minit	-0.03160956
-3.545678	mios…ôf	-0.03210449
-3.545678	misi	-0.03036979
-2.642588	mita…ĺ	-0.03180958
-3.545678	mit√ß įei	-0.005852833
-3.244648	mit…ô…ĺ	-0.005721444
-3.545678	mit įaŇčnifai	-0.03210449
-3.545678	mit įumt įinaŇč…°an	-0.03210449
-3.545678	miz…ôo…ĺanai	-0.03198081
-3.545678	mi čaz…ô čai	-0.03210449
-3.545678	mo	-0.03210449
-3.545678	moa	-0.03173335
-3.545678	mobap…ô…ĺni	-0.03198081
-3.545678	mobaudusomant įai	-0.03210449
-2.943618	mobla	-0.023487
-1.79749	moblib	-0.2231511
-3.545678	mohid…ôn	-0.005852833
-3.545678	mohinai	-0.03210449
-3.545678	mola	-0.03210449
-3.244648	molg įugul	-0.1718681
-3.545678	mominta	-0.03210449
-2.767527	mona	-0.02209726
-3.545678	monai	-0.03198081
-3.545678	moneni	-0.02949983
-3.545678	moni	-0.03210449
-3.545678	monisa	-0.03210449
-3.545678	monis…ô	-0.03210449
-3.244648	monne	-0.03198081
-3.244648	monse	-0.0318571
-3.545678	mont įai	-0.005852833
-3.545678	mop įaia	-0.02787956
-3.545678	moŇčale	-0.02762975
-3.545678	moŇčsi	-0.03210449
-3.545678	moŇčunamamuzinat į…ô	-0.0318571
-3.545678	mo…°alasai	-0.02974857
-3.545678	mo…°lidah	-0.03210449
-3.545678	mu	-0.02900193
-3.244648	mua	-0.03136189
-3.545678	muap į…ô…ĺ	-0.03049392
-3.545678	muap į…ĺai	-0.03198081
-3.545678	mudeiz…ôŇčga	-0.03198081
-3.545678	muk…ô	-0.03198081
-3.545678	muk įabai	-0.03210449
-3.545678	muk įu…ĺni	-0.03210449
-3.545678	mumuzi	-0.005852833
-3.068557	muna	-0.03173334
-3.545678	munim	-0.005852833
-3.545678	munip į…ĺo	-0.03210449
-3.545678	muniz…ôŇč	-0.03210449
-3.545678	muni…°o	-0.03210449
-3.545678	munnaizei	-0.02687946
-3.545678	munse	-0.03210449
-3.244648	munsi	-0.03198081
-3.545678	munt…ôn	-0.0318571
-3.545678	mununu	-0.0318571
-3.545678	mun…ô	-0.03198081
-3.545678	musei	-0.005852833
-3.545678	muzai…°an	-0.02875276
-3.545678	muzida	-0.005852833
-3.545678	muŇčme	-0.02900193
-3.545678	muŇčni	-0.0318571
-3.545678	muŇčnif…ĺai	-0.02949983
-3.545678	muŇčnizei	-0.03210449
-3.545678	muŇčn…ôi	-0.031238
-3.545678	muŇčn…ôz…ôda	-0.02524936
-3.545678	muŇč…°a	-0.03210449
-3.545678	mu…Ļlisim	-0.03210449
-3.545678	mu…Ļt įeklam	-0.03210449
-3.545678	m…Ēblib	-0.031238
-3.545678	m…Ēk įu…Ļ…ôu	-0.03036979
-3.545678	m…Ēne	-0.03099012
-3.545678	m…ĒŇčneizi	-0.03210449
-3.545678	m…ô	-0.02787956
-3.545678	m…ôd…ôŇč	-0.03210449
-3.545678	m…ôh…ô…ĺse	-0.03198081
-3.545678	m…ôit į…ô	-0.03210449
-3.545678	m…ôma	-0.02925095
-3.545678	m…ôme	-0.03210449
-3.545678	m…ômse	-0.02837875
-3.545678	m…ômuz…ô	-0.03210449
-3.545678	m…ôn	-0.005852833
-3.244648	m…ônip į…ĺai	-0.03198081
-3.545678	m…ônise	-0.03210449
-3.545678	m…ôniz…ôŇč	-0.0318571
-3.545678	m…ônk į…ôl…ôŇč	-0.03210449
-3.545678	m…ônk į…ôsi…ôŇč	-0.03210449
-3.545678	m…ônne	-0.03210449
-3.244648	m…ônnei	-0.0318571
-3.244648	m…ônn…ô	-0.02575158
-1.977476	m…ônse	-0.008543888
-3.068557	m…ônsei	-0.02487231
-3.068557	m…ônsi	-0.03136189
-3.545678	m…ônsita…ĺ	-0.03210449
-3.244648	m…ôns…ô	-0.03148574
-3.545678	m…ôns…ôs…ôn	-0.03210449
-3.545678	m…ôns…ôs…ôŇč	-0.03198081
-3.545678	m…ôns…ôs…ô…ĺ	-0.0318571
-3.545678	m…ônt įaditisiŇč	-0.03210449
-3.545678	m…ônt įi	-0.03210449
-3.545678	m…ônt įie	-0.02687946
-3.068557	m…ôn…ô	-0.02875276
-3.545678	m…ôn…ôiz…ôŇč	-0.03210449
-3.545678	m…ôn…ôi…°…ôn	-0.02600247
-3.545678	m…ôn…ôm…ôn…ô	-0.02600247
-3.545678	m…ôn…ôs…ô	-0.005852833
-3.545678	m…ôn…ôz…ôŇč	-0.03198081
-3.545678	m…ôse	-0.03210449
-3.545678	m…ôsei	-0.03210449
-3.545678	m…ôs…ônŇča	-0.03210449
-3.545678	m…ôs…ôsaŇč	-0.03148575
-3.244648	m…ôs…ôsa…ĺkidau	-0.004273576
-3.545678	m…ôs…ôsi	-0.03210449
-3.545678	m…ôs…ôŇč	-0.03210449
-3.068557	m…ôt…ôŇč	0.001834003
-3.244648	m…ôz…ô	-0.03198081
-3.068557	m…ôz…ôŇč	-0.03185709
-3.545678	m…ôŇčan	-0.03198081
-3.545678	m…ôŇčna	-0.03210449
-3.545678	m…ôŇčnai	-0.03210449
-2.70058	na	-0.02687945
-3.545678	nae	-0.02687946
-3.244648	naga	-0.0318571
-3.545678	nagam	-0.03210449
-3.545678	nagan	-0.02524936
-3.545678	nagoma	-0.0318571
-3.545678	nahahai	-0.03210449
-2.846708	nai	-0.0536365
-3.545678	naia	-0.02887736
-3.545678	naik…ĺom	-0.0318571
-3.545678	naini	-0.03210449
-3.545678	naintin	-0.03210449
-3.545678	nai…°id…ôŇč	-0.005852833
-3.545678	nalage	-0.005852833
-3.545678	namba…ĺ	-0.02875276
-3.545678	namba…ĺ…ô	-0.02875276
-3.545678	namb…ô…ĺ	-0.0318571
-3.545678	nam…ô…ĺ…ô	-0.02875276
-3.545678	nan…ôlag…ô	-0.005852833
-3.545678	nan…ôŇč	-0.03210449
-3.545678	natabt įai	-0.03210449
-3.545678	nataŇčmuna	-0.0318571
-3.244648	naza	-0.02057609
-3.545678	nazaŇča	-0.02887736
-3.545678	naze	-0.03160957
-3.545678	naz…ô	-0.03210449
-3.545678	naz…ôŇč	-0.03111408
-3.545678	naz…ôŇčnalan	-0.03210449
-3.545678	naŇčmai	-0.02900193
-3.545678	naŇčohai	-0.005852833
-3.545678	naŇčsa…ĺgan	-0.0318571
-3.545678	naŇč…°uzaie…ĺ	-0.03111408
-3.545678	na…°e…°iz…ôŇč	-0.03173335
-3.545678	na…°o	-0.02762975
-3.545678	na…ĺa	-0.005852833
-3.545678	na…ĺ…ô…°…ôn	-0.03198081
-3.545678	na čas	-0.03061803
-3.545678	ne	-0.02812923
-3.545678	nec įiŇč	-0.03136189
-3.545678	negiz…ôz…ôŇč	-0.03210449
-3.545678	nei	-0.03210449
-3.545678	neks	-0.03148575
-3.545678	neksz…ôŇčga	-0.02812923
-3.545678	nesen	-0.03198081
-3.545678	nettez…ôŇč…ô	-0.005852833
-3.545678	nez…ô	-0.03210449
-2.642588	ni	-0.02411724
-3.545678	nibei	-0.03210449
-3.545678	nibisim	-0.03210449
-3.545678	nibisin	-0.0318571
-3.545678	nibue	-0.03198081
-3.545678	nidibi	-0.03210449
-3.545678	nidiŇčgani	-0.03210449
-3.545678	nigeziz…ôŇč	-0.02600247
-3.545678	nigiziziz…ôm	-0.02974857
-3.545678	nik įi	-0.03198081
-3.545678	nik įid	-0.03210449
-3.545678	nimik įe	-0.005852833
-3.545678	nimuaza	-0.03136189
-3.545678	nim…ô	-0.03210449
-3.545678	ninnae	-0.02524936
-3.545678	nip į…ĺai	-0.03099012
-3.545678	niseb	-0.03198081
-3.545678	nisiziŇčziz…ôŇč	-0.03210449
-3.545678	nist įasa	-0.03210449
-3.545678	nis…ôs…ôŇč	-0.03210449
-3.545678	niun…ôd…ô	-0.03210449
-3.545678	nizis…ôŇč	-0.03148575
-3.545678	niziz…ô	-0.005852833
-3.545678	niz…ôzai	-0.02887736
-3.545678	niz…ô ča	-0.03198081
-3.545678	ni√ß įam	-0.005852833
-3.545678	niŇčt įam	-0.03210449
-3.545678	niŇčt į…ônona	-0.03210449
-3.545678	niŇč…ôsta…ĺoz…ôŇč…°a	-0.03198081
-3.545678	ni…°emeŇčt į…ôiza	-0.03173335
-3.545678	ni…°eziz…ôm	-0.03210449
-3.068557	ni…°eziz…ôŇč	-0.02637853
-3.545678	ni če	-0.0318571
-3.545678	ni čei	-0.0318571
-3.244648	no	-0.02800441
-3.545678	noha	-0.005852833
-3.545678	nonam…ôd…ôŇč	-0.02524936
-3.545678	nou…ô	-0.005852833
-3.545678	no…Ļmeli	-0.03210449
-3.545678	nu	-0.03210449
-3.545678	nua	-0.03210449
-3.545678	nudau	-0.0318571
-3.545678	nuk į…ôi č…ô	-0.005852833
-3.545678	nuna	-0.03148575
-3.545678	nunam…ôn…ôn	-0.005852833
-3.545678	nunu	-0.03210449
-3.545678	nun…ô	-0.03210449
-3.545678	nuŇčla	-0.005852833
-3.545678	n…Ē	-0.02787956
-3.244648	n…ô	-0.02750479
-3.545678	n…ôboud…ôŇč	-0.005852833
-3.545678	n…ôd…ôŇčm…ôd…ôn	-0.02949983
-3.545678	n…ôd…ôŇčm…ôna	-0.03210449
-3.545678	n…ôio	-0.02925095
-3.545678	n…ôi…°i ąaŇč	-0.005852833
-3.545678	n…ôk įu…Ļk įu…Ļ…ôu	-0.03210449
-3.545678	n…ôl…ôŇča	-0.03210449
-3.545678	n…ôm…ôi	-0.03210449
-3.545678	n…ônnaiz…ô	-0.02600247
-3.545678	n…ônnunam…ôtaŇč	-0.03210449
-3.545678	n…ônt į…ômonaiz…ô	-0.03198081
-3.545678	n…ôn…ôm…ôd…ôn	-0.005852833
-3.545678	n…ôn…ôm…ôd…ôŇč	-0.005852833
-3.244648	n…ôn…ôm…ôna	-0.0318571
-3.545678	n…ôn…ôm…ônai	-0.03198081
-3.545678	n…ôn…ôm…ôn…ô	-0.03210449
-3.545678	n…ôn…ôŇčmona	-0.005852833
-3.545678	n…ôn…ôŇčzae	-0.03148575
-3.545678	n…ôpt įao…°an	-0.03210449
-3.545678	n…ôsi	-0.03148575
-3.545678	n…ôs…ô	-0.03210449
-3.545678	n…ôt…ônek…ôs…ôŇč	-0.03173335
-3.545678	n…ôt į…ôŇč	-0.03148575
-3.068557	n…ôt į…ôŇčmona	-0.0280044
-3.545678	n…ôt į…ôŇčmonalenade	-0.03198081
-3.545678	n…ôza	-0.005852833
-3.545678	n…ôzziseni	-0.03210449
-3.244648	n…ôz…ô	-0.005721444
-3.545678	n…ôz…ôila…°e	-0.03111408
-3.545678	n…ôz…ôu	-0.03210449
-3.068557	n…ôz…ôŇč	-0.02575157
-3.545678	n…ô√ß į…ôŇčmona	-0.03210449
-3.545678	n…ôŇč	-0.03210449
-3.545678	n…ôŇčboad…ôŇč	-0.03210449
-3.545678	n…ôŇčdan	-0.03210449
-3.545678	n…ôŇčd…ôm…ôn…ôn	-0.03210449
-3.545678	n…ôŇčin…ôjizae	-0.03198081
-3.545678	n…ôŇčnai	-0.031238
-3.545678	n…ôŇčtuŇčm…ônai	-0.03210449
-3.545678	n…ôŇčt įa	-0.03099012
-3.545678	n…ôŇčt įaŇčmona	-0.005852833
-3.545678	n…ôŇčt įmona	-0.03198081
-2.027164	n…ôŇčt į…ômona	-0.0004994228
-3.545678	n…ôŇčt į…ômoni	-0.03210449
-3.545678	n…ôŇčt į…ômono	-0.03210449
-2.223459	n…ôŇčt į…ôm…ôna	-0.02456044
-3.545678	n…ôŇčt į…ôm…ônai	-0.03210449
-2.09852	n…ôŇčt į…ôm…ôn…ô	-0.03830219
-3.545678	n…ôŇčt į…ôm…ôt ča	-0.03198081
-3.545678	n…ôŇčt į…ôm…ôŇč	-0.03198081
-3.545678	n…ôŇčt į…ôn	-0.03148575
-3.545678	n…ôŇčt į…ônm…ô	-0.03210449
-3.545678	n…ôŇčt į…ônm…ôna	-0.03210449
-3.545678	n…ôŇčt į…ôn…ôn…ô	-0.03210449
-3.545678	n…ôŇčt į…ôŇč	-0.03210449
-3.545678	n…ôŇčt į…ôŇčamazea	-0.005852833
-3.244648	n…ôŇčt į…ôŇčmona	-0.03049392
-3.545678	n…ôŇčt į…ôŇčmunni	-0.03210449
-2.642588	n…ôŇčt į…ôŇčm…ôna	-0.02298216
-2.642588	n…ôŇčt į…ôŇčm…ôn…ô	-0.09146525
-3.545678	n…ôŇčt į…ôŇč…ôz	-0.02837875
-3.545678	n…ôŇčt į…ôŇč…ôze	-0.03136189
-3.545678	n…ôŇčt į…ôŇč…ôz…ô	-0.03198081
-3.545678	n…ôŇčt į…ô…°…ôm	-0.03210449
-3.545678	n…ôŇč…ô	-0.03210449
-3.545678	n…ôŇč…ôz…ôŇča	-0.03173335
-3.545678	n…ôŇč…ôŇčmn…ôŇč	-0.03198081
-3.545678	n…ôŇč…°…ôn	-0.02600247
-3.545678	n…ô…°…ôm	-0.03210449
-3.545678	n…ô…°…ônzae	-0.005852833
-3.545678	n…ô…°…ôz…ôn	-0.03210449
-3.244648	n…ô…ĺ…ô	-0.02925095
-3.244648	obla	-0.03173335
-3.545678	oblai	-0.03198081
-3.545678	oblaz…ôŇč	-0.03210449
-3.244648	ohai	-0.005721444
-3.545678	ohoi	-0.03210449
-3.545678	ohuigoman	-0.03210449
-3.545678	ok įilaize	-0.03049392
-3.545678	ok įul	-0.03210449
-2.767527	ola	-0.1648797
-3.545678	olahin…ôz…ô	-0.02949983
-3.545678	olanebi	-0.03210449
-3.244648	olan…ôŇčt į…ôm…ôn…ô	-0.031238
-3.545678	oldana	-0.03210449
-3.545678	olg įain…ô	-0.031238
-2.591436	om	-0.2839006
-3.545678	omna	-0.03210449
-3.545678	omne	-0.03148575
-2.767527	omni	-0.6482465
-3.545678	omot įan…ôn…ôŇčt į…ô	-0.03148575
-3.545678	om…ô	-0.03210449
-3.545678	oni	-0.03148575
-3.545678	onli	-0.02925095
-3.244648	ono	-0.03198081
-3.545678	os	-0.03210449
-3.545678	osadni	-0.03210449
-3.545678	osen	-0.03210449
-3.545678	os…ôŇč	-0.03148575
-3.545678	ozo	-0.03198081
-3.545678	oŇča	-0.03198081
-3.545678	oŇčo	-0.005852833
-3.545678	oŇčse	-0.03210449
-3.068557	o…ĺla	-0.02737979
-3.545678	o…ĺlanegeu	-0.03210449
-3.545678	par	-0.03210449
-3.545678	past įaona	-0.03210449
-3.244648	paua…ĺ	-0.03136189
-3.545678	paue…ĺ	-0.03148575
-3.244648	pauva…ĺ	-0.171373
-3.545678	pau…ô…ĺ	-0.03198081
-3.244648	pau ča…ĺ	-0.02900193
-3.545678	pa…ĺp įoz…ôŇč	-0.03210449
-3.545678	phin…ôi	-0.03210449
-3.068557	piksa…ĺ	-0.03185709
-3.244648	piksa…ĺ…ô	-0.0318571
-3.545678	pilims	-0.03210449
-3.545678	pi…Ēhai	-0.03210449
-3.545678	plie	-0.0318571
-3.545678	poi	-0.03198081
-2.545678	poin	-0.3860982
-3.545678	posison	-0.03210449
-3.068557	potensiel	-0.03185709
-3.545678	pr…ôpo…ĺs…ônel	-0.03198081
-3.545678	puŇčla	-0.03210449
-3.545678	puŇčoblan	-0.03210449
-3.545678	pu…ĺlu	-0.03210449
-3.545678	pu…ĺluhuli	-0.03210449
-3.545678	p…ĺoblem	-0.03210449
-3.244648	p…ĺopo…ĺs…ônel	-0.02373921
-3.545678	p…ĺopo…ĺs…ôn…ôl	-0.02837875
-3.545678	p…ĺ…ôpo…ĺs…ônel	-0.02837875
-3.545678	p įag…ônn…ô	-0.03210449
-3.545678	p įa…ĺa	-0.03210449
-3.545678	p įa…ĺagni	-0.03210449
-2.846708	p įa…ĺak	-0.001893872
-3.244648	p įa…ĺakni	-0.1718681
-3.545678	p įa…ĺak į…ô	-0.03198081
-3.545678	p įa…ĺami	-0.03210449
-3.545678	p įa…ĺao	-0.03210449
-3.545678	p įa…ĺa…°	-0.03210449
-3.068557	p įa…ĺa…°a	-0.02887736
-3.545678	p įa…ĺa…°abe	-0.03210449
-3.545678	p įa…ĺa…°az…ô…°…ôn	-0.03210449
-3.244648	p įa…ĺa…°o	-0.02912646
-3.545678	p įa…ĺm…ô	-0.03210449
-3.545678	p įa…ĺm…ôina	-0.03210449
-3.068557	p įa…ĺne	-0.03160956
-3.545678	p įa…ĺn…ô	-0.03198081
-3.545678	p įa…ĺo	-0.03210449
-3.545678	p įa…ĺs	-0.03210449
-3.545678	p įa…ĺse	-0.03210449
-3.545678	p įa…ĺs…ôziŇč	-0.03210449
-3.545678	p įa…ĺ…ôkuzuk įinae	-0.02949983
-3.545678	p įa…ĺ…ônai	-0.03210449
-3.545678	p įa…ĺ…ôse	-0.02875276
-3.545678	p įa…ĺ…ôŇč…°ai	-0.03210449
-3.545678	p įa…ĺ…ô…°k įo	-0.03210449
-3.545678	p įeiz…ôŇčdetesiŇč	-0.005852833
-3.244648	p įi	-0.02775467
-3.545678	p įia	-0.03198081
-3.545678	p įia…°eŇč…°…ôz…ô	-0.03210449
-3.545678	p įilament	-0.03210449
-3.545678	p įin…ôs…ô	-0.03198081
-3.545678	p įiziŇč	-0.03210449
-3.545678	p įi…ĺonmoi	-0.03210449
-3.545678	p įobla	-0.03210449
-3.545678	p įonazab	-0.005852833
-3.545678	p įonaŇčzabna…°o	-0.02600247
-3.545678	p įoza	-0.03210449
-3.244648	p įo…ĺa	-0.028254
-3.545678	p įo…ĺais…ô	-0.02962422
-3.545678	p įo…ĺak į…ôi	-0.03210449
-3.545678	p įo…ĺesi	-0.0318571
-3.244648	p įo…ĺes…ô	-0.16864
-2.846708	p įo…ĺmula	-0.03036978
-3.545678	p įo čai	-0.03099012
-3.545678	p įuk įulam	-0.005852833
-3.545678	p įup įu…ĺl…ô	-0.03210449
-3.545678	p įu…ĺaŇčzab	-0.02974857
-3.545678	p įu…ĺm…ôi	-0.03210449
-3.545678	p į…ô	-0.02762975
-3.545678	p į…ôg…ôn	-0.031238
-3.545678	p į…ônaz…ô čalase	-0.03210449
-3.545678	p į…ô…ĺa	-0.03210449
-3.545678	p į…ô…ĺak	-0.03160957
-3.244648	p į…ô…ĺ…ô	-0.03061802
-3.545678	p į…ô…ĺ…ôi	-0.03198081
-3.545678	p į…ô…ĺ…ôk	-0.03210449
-3.545678	p į…ô…ĺ…ôŇča	-0.03160957
-3.068557	p į…ĺai	-0.1168412
-3.545678	rai	-0.03210449
-3.545678	revaiti	-0.03210449
-3.545678	ru	-0.03210449
-3.545678	ruzt įaija…ĺ	-0.03049392
-3.545678	ruzt įaija…ĺi	-0.03049392
-3.545678	sa	-0.03210449
-3.545678	sabi	-0.03210449
-3.545678	sabonkot įae	-0.03210449
-3.244648	sabse	-0.1718681
-3.545678	saga	-0.005852833
-3.545678	saimam	-0.03111408
-3.545678	sains	-0.03210449
-3.545678	sains…ô	-0.0318571
-3.545678	saintis	-0.03210449
-3.545678	saio	-0.03210449
-3.545678	sajao	-0.03210449
-3.545678	sakiniŇčta	-0.03210449
-3.545678	sak įai	-0.031238
-3.545678	salamna	-0.005852833
-3.545678	sale	-0.03061803
-3.244648	salea	-0.03111408
-2.846708	sali	-0.02474655
-3.545678	samm…Ēn	-0.005852833
-3.545678	samon	-0.03210449
-3.068557	san	-0.03111407
-3.545678	sana	-0.03210449
-3.545678	sana…ĺ…ô	-0.03210449
-3.545678	sandai	-0.02900193
-3.545678	sansini	-0.03210449
-3.545678	sant…ôl…ôz…ôŇčga	-0.03210449
-3.545678	sanu	-0.03210449
-3.545678	san…ô	-0.03210449
-3.545678	san…ôi	-0.03210449
-3.545678	san…°a	-0.03148575
-3.545678	saolana	-0.031238
-3.545678	saos	-0.03210449
-3.545678	sapos	-0.005852833
-3.244648	sarkit	-0.03198081
-3.545678	sasea	-0.03210449
-3.545678	sasi	-0.03210449
-3.244648	sasse	-0.0318571
-3.545678	sati	-0.03198081
-3.545678	sat įi	-0.03210449
-3.545678	saua…ĺi	-0.03210449
-3.545678	sau…ĺai	-0.03210449
-3.545678	sau…ĺai…°…ôm	-0.005852833
-3.068557	sau…ĺai…°…ôn	-0.002158925
-3.545678	sau…ĺaomni	-0.03148575
-3.545678	sau…ĺ…ô	-0.03210449
-3.545678	sau…ĺ…ô…°…ôn	-0.03111408
-3.545678	sau ča…ĺi	-0.005852833
-3.545678	sau ča…ĺiz…ôŇč	-0.03210449
-3.545678	savanne…ĺi	-0.03210449
-3.244648	sava…ĺi	-0.031238
-3.244648	saz	-0.02887736
-3.545678	sazai	-0.03210449
-3.545678	saz…ôinez…ôi	-0.005852833
-3.244648	saŇč	-0.031238
-3.545678	saŇčgodi	-0.03210449
-3.545678	saŇčk įont įai	-0.0318571
-3.545678	sa…°odi	-0.03086612
-3.545678	sa…ĺain…ôiŇč	-0.03074209
-3.068557	sa…ĺkit	-0.03185709
-3.545678	sa…ĺla	-0.03148575
-2.504286	sa…ĺs	-0.02974856
-3.545678	sa…ĺsaba…ĺ	-0.03210449
-3.545678	sa…ĺsau	-0.005852833
-3.545678	sa…ĺsa…ĺsi	-0.03210449
-3.244648	sa…ĺsk įa	-0.03198081
-3.545678	sa…ĺsk į…ô	-0.03210449
-3.068557	sa…ĺsni	-0.03185709
-3.545678	sa…ĺso	-0.03049392
-3.545678	sa…ĺst įaŇč…ôin…ôz…ôŇč	-0.03210449
-3.545678	sa…ĺs…ôk į…ôl	-0.03210449
-3.545678	sa…ĺ č…ôk įu	-0.03210449
-3.545678	sa č	-0.03210449
-3.545678	sa čae čas či	-0.03210449
-3.545678	sa ča…ĺan	-0.02812923
-2.431735	se	-0.1087474
-3.244648	sek	-0.0318571
-3.244648	seken	-0.02875276
-3.545678	sekeno	-0.03198081
-3.545678	sek įolo	-0.03210449
-3.068557	sel	-0.003745875
-3.545678	selp įo…ĺni	-0.0318571
-3.545678	seml…ôz…ôŇč	-0.03198081
-3.545678	sena	-0.03061803
-3.545678	seob	-0.03210449
-3.545678	septa…ĺ	-0.02887736
-3.545678	sevs…ôna…°…ôn	-0.03198081
-3.545678	seŇč…ĺuzut įaija…ĺi	-0.03210449
-3.545678	se…ĺnagaŇč	-0.03210449
-3.545678	se ča	-0.03210449
-3.545678	se čai	-0.03198081
-3.545678	se čen	-0.03210449
-2.70058	si	-0.02474655
-2.767527	siks	-0.06994389
-3.545678	siksti	-0.03210449
-3.545678	sikstie	-0.03173335
-3.244648	sim	-0.005721444
-3.545678	sima	-0.03210449
-2.70058	simbol	-0.02386525
-3.545678	simbola	-0.03074209
-3.545678	simboz…ôŇčdit į…ôn…ôiz…ô	-0.03210449
-3.545678	simb…ôl	-0.0318571
-3.545678	sim…ôi	-0.03099012
-3.545678	sio	-0.03210449
-3.545678	sion…ô	-0.02962422
-3.545678	sisi…ĺ	-0.0318571
-3.545678	siszen	-0.03210449
-3.545678	siŇčknek įo	-0.03210449
-3.545678	siŇč…°o	-0.0318571
-3.545678	siŇč…°…ôl	-0.03198081
-3.545678	si…ĺfnaŇčzabnaita	-0.03198081
-3.545678	si…ĺiebala…ĺie	-0.03210449
-3.545678	si…ĺit įaŇčnada…°at įai	-0.02762975
-3.545678	si…ĺt įaŇčnadazabt įai…°a	-0.02762975
-2.591436	so	-0.02862813
-3.545678	soblait įini	-0.03136189
-3.545678	solagibeniuonde	-0.005852833
-3.545678	solamna	-0.0318571
-3.244648	somman	-0.02962421
-3.545678	somn…ôŇč…°en	-0.03210449
-3.545678	sona…°…ôb…ô	-0.03148575
-3.545678	sonne	-0.03198081
-3.545678	soŇč	-0.03210449
-3.545678	soŇčdan	-0.03210449
-3.545678	soŇčk į…ôn	-0.03173335
-3.545678	stak į…ôl…ômn…ôn…ô	-0.02875276
-3.545678	steiŇč	-0.03210449
-3.545678	sugan	-0.03210449
-3.545678	suissega	-0.005852833
-3.545678	suisuba	-0.03210449
-3.545678	sula	-0.03210449
-3.545678	sulai	-0.03210449
-2.943618	suman	-0.09569745
-3.545678	sunai	-0.031238
-3.545678	sunni	-0.03210449
-3.545678	suno	-0.03210449
-3.545678	suzin	-0.03210449
-3.545678	suŇča	-0.03210449
-3.545678	su…ĻuŇča	-0.03136189
-3.244648	swis	-0.0318571
-3.244648	s…ô	-0.03198081
-3.545678	s…ôbse	-0.03210449
-3.545678	s…ôbs…ôha…°…ôn	-0.02687946
-3.545678	s…ôk į…ôluŇč	-0.03210449
-3.244648	s…ôlai	-0.0318571
-3.545678	s…ôlak įi	-0.03210449
-3.545678	s…ôm	-0.03173335
-2.943618	s…ôman	-0.09582131
-3.545678	s…ôn	-0.03210449
-3.545678	s…ôna…ĺnai	-0.03210449
-3.545678	s…ôna…ĺo	-0.03210449
-3.545678	s…ônnaoma…ĺ…°ao	-0.03049392
-3.545678	s…ôns	-0.03210449
-3.545678	s…ôns…ôs…ôŇč	-0.03148575
-3.545678	s…ôn…ôg…ôn	-0.03198081
-3.545678	s…ôn…ôi…ô…°…ôn	-0.005852833
-3.545678	s…ôn…ô…°…ôn	-0.005852833
-3.545678	s…ôn…°odi	-0.03210449
-3.545678	s…ôsse	-0.03198081
-3.545678	s…ôs…ôime…°en…°ioni	-0.03210449
-3.244648	s…ôu…ĺaig…ôn	-0.028254
-3.545678	s…ôu…ĺ…ôi	-0.03210449
-2.846708	s…ôŇč	-0.03099011
-3.545678	s…ôŇča	-0.03210449
-3.545678	s…ôŇčguni	-0.03210449
-3.545678	s…ôŇčkont įai	-0.03210449
-3.545678	s…ôŇčkunt įei	-0.03210449
-3.545678	s…ôŇčk įont įaini	-0.02762975
-3.545678	s…ôŇčk įont įei	-0.03210449
-3.545678	s…ôŇčl…ô	-0.03210449
-3.545678	s…ôŇčl…ôn	-0.03210449
-3.545678	s…ôŇčo	-0.03210449
-3.545678	s…ôŇč…°a	-0.03210449
-3.545678	s…ô…ĺs…ô	-0.005852833
-3.545678	s…ĺeŇč	-0.03198081
-3.244648	ta	-0.03198081
-3.545678	taim	-0.03210449
-3.545678	ta…ĺ	-0.02887736
-3.545678	ta…ĺk įo	-0.03210449
-3.068557	ta…ĺni	-0.03160956
-3.545678	te	-0.03210449
-3.244648	teb…ôl	-0.02323465
-2.545678	ten	-0.7267247
-2.846708	ti	-0.02159079
-3.545678	tie	-0.02524936
-3.545678	tihaidoŇčo	-0.03210449
-3.545678	tih…ôn…ôeidoŇčo	-0.03210449
-3.545678	tiuk į…ôn…ôŇčd…ôz…ôn	-0.03136189
-3.545678	tiuŇč…ôd…ô	-0.03210449
-3.545678	tono	-0.005852833
-3.545678	tonsimet…ĺi	-0.03210449
-3.545678	topik	-0.031238
-3.545678	toŇčo	-0.03210449
-3.545678	toŇčobet įik įoia…ĺa	-0.03210449
-2.054317	tu	-0.2237054
-2.943618	tuelf	-0.1703812
-3.545678	tun	-0.03210449
-3.545678	twel	-0.03099012
-3.244648	twelf	-0.1708774
-3.545678	t įa	-0.0318571
-3.545678	t įaboŇčnai	-0.03198081
-3.545678	t įahai	-0.03198081
-3.545678	t įahalak įinai	-0.03210449
-3.244648	t įahate	-0.1714968
-2.203255	t įahati	-0.06056571
-3.545678	t įahatip į…ô…ĺ…ô	-0.02600247
-2.767527	t įahat įi	-0.02575158
-3.545678	t įaha…°an	-0.005852833
-3.244648	t įaha…ĺt įi	-0.02587704
-2.943618	t įai	-0.02887736
-3.545678	t įaie	-0.02925095
-3.545678	t įaien…ôŇčt į…ômona	-0.005852833
-3.545678	t įaijo	-0.03210449
-3.545678	t įaila	-0.03210449
-3.545678	t įaimn…ôŇč…°…ôn	-0.03210449
-3.545678	t įaim…ônait	-0.03198081
-3.545678	t įakuni	-0.03210449
-3.545678	t įak įai	-0.03148575
-3.545678	t įak įati	-0.03210449
-3.545678	t įak įat įi	-0.03210449
-3.545678	t įak įizio	-0.03210449
-3.545678	t įamainz…ô	-0.03210449
-3.545678	t įama čaba…ĺi	-0.03210449
-3.545678	t įametba	-0.02787956
-2.767527	t įamet ča	-0.0644178
-3.545678	t įamhinba	-0.005852833
-3.545678	t įamin	-0.03136189
-3.068557	t įamitba	-0.03185709
-3.545678	t įamit ča	-0.03210449
-3.244648	t įanai	-0.03160957
-3.545678	t įanan…ôz…ôŇč	-0.03210449
-3.545678	t įanaŇčd…ôn	-0.03210449
-3.545678	t įaneŇčma	-0.02524936
-3.545678	t įan…ôi	-0.03049392
-3.545678	t įattanp į…ĺ…ôni	-0.03210449
-3.244648	t įatua…ĺi	-0.03173335
-3.545678	t įau…ĺa	-0.005852833
-3.545678	t įaŇč	-0.02812923
-2.943618	t įaŇčai	-0.0237392
-3.545678	t įaŇčan…ôn…ôn…ôi	-0.03061803
-3.545678	t įaŇča…ĺas	-0.03160957
-3.545678	t įaŇčbai	-0.03198081
-3.545678	t įaŇčna	-0.03210449
-2.846708	t įaŇčnai	-0.07542993
-3.545678	t įaŇčnala	-0.03210449
-3.545678	t įaŇčz…ôn	-0.03210449
-3.545678	t įaŇčz…ôŇč	-0.03210449
-3.545678	t įa…°…ôn	-0.03210449
-3.545678	t įa…ĺ	-0.02875276
-3.545678	t įa…ĺa	-0.02762975
-3.545678	t įa…ĺaibaz…ôŇč	-0.03210449
-3.244648	t įa…ĺaz…ôŇč	-0.03049392
-3.545678	t įa…ĺni	-0.03210449
-3.244648	t įeŇčnai	-0.0318571
-3.545678	t įeŇčt įa	-0.03160957
-3.545678	t įeŇčt įai	-0.03210449
-3.545678	t įhamet ča	-0.03210449
-3.545678	t įiduŇčt įeo	-0.03198081
-3.545678	t įie…ĺ…ô	-0.03210449
-3.545678	t įio…ĺi	-0.03210449
-3.545678	t įoa	-0.02600247
-3.545678	t įo…ĺse	-0.03198081
-3.545678	t į…ôi čaz…ôŇč	-0.0318571
-3.545678	t į…ôm…ôuan	-0.03210449
-3.545678	t į…ônai	-0.02524936
-3.545678	t į…ôniu	-0.03198081
-3.545678	t į…ôn…ômnalan	-0.02812923
-3.545678	t į…ôŇčai	-0.0318571
-3.545678	t į…ôŇčbai	-0.005852833
-3.545678	t į…ôŇčbiohai	-0.03210449
-3.545678	t į…ôŇčhanaio	-0.005852833
-3.545678	t į…ôŇčh…ônajob	-0.03210449
-3.545678	t į…ôŇčh…ôn…ô	-0.03210449
-3.545678	t į…ôŇčna	-0.02787956
-3.545678	t į…ôŇčnai	-0.02524936
-3.545678	t į…ôŇčnau	-0.005852833
-3.545678	t į…ôŇčn…ô	-0.02762975
-3.545678	t į…ôŇčo	-0.02812923
-3.545678	t į…ôŇčo…°…ô	-0.03210449
-3.244648	t į…ôŇčz…ôŇč	-0.03198081
-3.244648	t į…ôŇč…°a	-0.02675428
-3.545678	t į…ôŇč…°…ô	-0.03210449
-3.545678	t į…ôŇč…°…ô…ĺ	-0.03210449
-3.545678	t į…ôŇč…ĺa	-0.03198081
-3.545678	t į…ô…°…ôn	-0.02600247
-3.545678	t į…ô…ĺ…ôm	-0.03210449
-3.068557	t į…ĺi	-0.02837874
-3.545678	tÕús…ô…°…ônam	-0.005852833
-2.165467	uan	-0.1732913
-3.545678	uanda	-0.03061803
-3.545678	udegaz…ôzi	-0.02687946
-3.545678	udeiz…ôŇč	-0.03111408
-3.545678	udi	-0.03210449
-3.545678	uk įeni	-0.02900193
-2.943618	unni	-0.2640214
-3.545678	unnisau…ĺ…ôn…ôz…ôŇč…°a	-0.02762975
-3.545678	ut įa	-0.03198081
-3.545678	uze	-0.03210449
-3.545678	uzeŇč	-0.03210449
-3.545678	uzu	-0.03210449
-3.545678	vai	-0.03086612
-3.545678	vaŇčsumau	-0.03049392
-3.545678	va…ĺ	-0.03210449
-3.545678	vek įu	-0.0318571
-3.545678	vese	-0.03210449
-3.545678	vesolaki	-0.02600247
-3.545678	vezewai	-0.03210449
-2.846708	vi	-0.08080478
-2.943618	vidio	-0.03160956
-3.545678	viz…ôŇč…°a	-0.03173335
-3.244648	vol	0.0007656227
-3.545678	volmita…ĺ	-0.03210449
-2.943618	volt	-0.02787955
-3.244648	volta	-0.02750479
-2.943618	voltmita…ĺ	-0.03049392
-3.545678	voltmita…ĺk įo	-0.03198081
-3.545678	voltmta…ĺda	-0.03210449
-3.545678	v…ô…ĺs…ô	-0.03210449
-3.545678	watsa ču	-0.03210449
-2.767527	za	-0.02133734
-3.545678	zabai	-0.03210449
-3.545678	zabod	-0.0318571
-3.244648	zada	-0.005590019
-3.545678	zadaz…ôŇč	-0.02949983
-3.545678	zade	-0.02600247
-3.545678	zad…ô	-0.03148575
-3.545678	zae	-0.03136189
-3.545678	zaha	-0.03210449
-3.545678	zahanave	-0.03210449
-3.545678	zah…ô	-0.03210449
-3.244648	zai	-0.0318571
-3.545678	zaida	-0.02812923
-3.545678	zaie	-0.02600247
-3.545678	zaie…ĺ	-0.02600247
-3.545678	zainigeziz…ôŇč	-0.03173335
-3.545678	zaip į…ô…ĺai	-0.02812923
-3.545678	zajani	-0.03210449
-3.244648	zaman	-0.03036978
-3.545678	zamanu	-0.03210449
-3.545678	zananagomai	-0.005852833
-3.545678	zat į…ôz…ôŇč	-0.03210449
-3.545678	za…°…ôn	-0.005852833
-3.545678	za ča	-0.005852833
-3.244648	za čai	-0.0009649018
-2.642588	ze	-0.01610865
-3.244648	zebla	-0.02436907
-3.545678	zeblab	-0.03210449
-3.545678	zeblanik įiŇč	-0.03210449
-3.545678	zeblaz…ôŇčsa…ĺk įit	-0.03198081
-3.545678	zeblaŇčhi	-0.031238
-3.545678	zebla če	-0.005852833
-3.545678	zega	-0.0318571
-3.545678	zeikiz…ôŇč	-0.03210449
-3.545678	zeik įize	-0.03210449
-3.545678	zek įize	-0.02762975
-3.545678	zesiba	-0.03210449
-3.545678	zesibaŇč	-0.02974857
-3.068557	zeula	-0.1174639
-3.545678	zez…ôŇč	-0.03160957
-3.545678	zeŇčboa	-0.02762975
-3.545678	zeŇčnai	-0.03061803
-3.545678	zeŇč…°a	-0.03210449
-3.244648	ze čai	-0.00321754
-3.244648	ze čla	-0.0301214
-3.545678	ze član	-0.02812923
-3.545678	zi	-0.03210449
-3.545678	zidenz…ô	-0.03210449
-3.545678	zinei	-0.03210449
-3.545678	zini	-0.03210449
-3.545678	zinini	-0.03210449
-3.545678	zinne	-0.03210449
-3.545678	zinn…ôi	-0.03210449
-3.545678	zipt į…ôŇč…ô	-0.02900193
-3.545678	ziŇčzei	-0.03210449
-2.943618	zi…ĺo	-0.697732
-3.068557	zodi	-0.03185709
-3.545678	zoveleona	-0.03210449
-3.545678	zo…ĺs	-0.03210449
-3.545678	zubuŇč	-0.03160957
-3.545678	zude	-0.03210449
-3.244648	zudi	-0.02436907
-3.545678	zudibek įubak įai	-0.03210449
-3.545678	zuk įi	-0.03210449
-2.943618	zul	-0.03086612
-3.244648	zunzei	-0.16864
-3.545678	zuŇč	-0.03210449
-3.545678	zu…ĺupsa	-0.03099012
-3.545678	zu…ĺup į…ĺa	-0.03210449
-2.431735	z…ô	-0.003613858
-3.244648	z…ôbai	-0.03198081
-3.545678	z…ôbla	-0.03198081
-3.545678	z…ôblaik įio	-0.03210449
-3.545678	z…ôb…ôd	-0.0318571
-3.545678	z…ôb…ôŇč	-0.03210449
-3.545678	z…ôd…źŇč	-0.03074209
-2.642588	z…ôd…ô	-0.0539597
-3.545678	z…ôd…ôda	-0.02962422
-2.767527	z…ôd…ôŇč	0.002637007
-3.545678	z…ôh…ôn…ôi	-0.03198081
-3.545678	z…ôh…ô…ĺai	-0.03074209
-3.545678	z…ôi	-0.02762975
-3.545678	z…ôif…ô…ĺ	-0.03210449
-3.545678	z…ôjobla	-0.03198081
-3.545678	z…ôlamna	-0.02812923
-3.545678	z…ôm…ôn…ôn…ô	-0.03061803
-3.545678	z…ôn	-0.03210449
-3.545678	z…ôn…ônai	-0.03210449
-3.545678	z…ôt įai	-0.005852833
-3.244648	z…ôz…ôŇč	-0.004932296
-2.244648	z…ôŇč	-0.01777334
-2.545678	z…ôŇča	-0.2644954
-3.545678	z…ôŇčai	-0.03198081
-3.545678	z…ôŇčda	-0.02962422
-2.130705	z…ôŇčga	-0.02222895
-3.545678	z…ôŇčg…ô	-0.03210449
-3.545678	z…ôŇčhai	-0.03210449
-3.545678	z…ôŇčm…ôn…ô	-0.02949983
-3.545678	z…ôŇčnai	-0.03210449
-3.545678	z…ôŇčt įahati	-0.03160957
-3.545678	z…ôŇčt įahatip į…ô…ĺ…ôŇč	-0.03210449
-3.545678	z…ôŇčzahao	-0.03210449
-3.545678	z…ôŇčz…ôŇč	-0.03210449
-2.00161	z…ôŇč…°a	-0.02209931
-3.545678	z…ôŇč…°ak įinadaŇč	-0.03210449
-3.545678	z…ôŇč…°as…ôŇč	-0.03160957
-3.545678	z…ôŇč…°i	-0.03210449
-3.545678	z…ô…°…ôn	-0.02925095
-3.545678	z…ô…≥n…ô	-0.02762975
-3.545678	z…ô ča	-0.02875276
-3.244648	z…ô čai	-0.03198081
-3.545678	√ß įiduŇčk įese	-0.03210449
-3.545678	Ňčaz…ô	-0.02600247
-3.545678	ŇčuŇčt įumona	-0.03136189
-3.545678	Ňč…ônai	-0.005852833
-3.545678	Ňč…ôŇčt įa	-0.03148575
-3.545678	Ňč…ôŇčt į…ôn	-0.03148575
-3.545678	…ô	-0.03210449
-3.545678	…ôkn…ô	-0.03210449
-3.545678	…ôls	-0.03210449
-3.545678	…ôluz…ôŇč	-0.03210449
-3.545678	…ôn…ôi	-0.03198081
-3.545678	…ôn…ôŇčt į…ôm…ôn…ô	-0.02762975
-3.545678	…ôr…ô	-0.03210449
-3.545678	…ôz…ôŇč	-0.03210449
-3.545678	…ôz…ôŇčz…ô	-0.03148575
-3.545678	…ôŇčmonoze	-0.005852833
-3.545678	…ôŇčnai	-0.0318571
-3.068557	…ô…ĺa	-0.02462076
-3.545678	…ô…ĺ…ôd…ôŇča	-0.02524936
-3.545678	…ô…ĺ…ôz…ô	-0.03210449
-3.545678	…ô…ĺ…ôz…ôŇč	-0.03210449
-3.545678	…°a	-0.02787956
-3.545678	…°ai	-0.03210449
-3.545678	…°anai	-0.03210449
-3.545678	…°analaz…ôŇč	-0.005852833
-3.545678	…°ane…°eziz…ôz…ôm	-0.03198081
-3.545678	…°aondi…°…ôz…ôz…ôŇč	-0.03210449
-3.545678	…°assin…ô č…ôu	-0.03210449
-3.545678	…°azeŇč…°a	-0.0318571
-3.545678	…°azib	-0.0318571
-3.545678	…°a…ĺa	-0.0318571
-3.545678	…°enun…ô	-0.03210449
-3.545678	…°eso	-0.0318571
-3.545678	…°ezez…ôŇč	-0.02812923
-3.545678	…°eze…ĺao	-0.03160957
-3.545678	…°eze…ĺo	-0.03160957
-3.545678	…°eze…ĺzo	-0.03160957
-3.545678	…°eze…ĺz…ôŇč	-0.02837875
-3.545678	…°eziz…ôŇč	-0.03160957
-3.545678	…°ez…ôni	-0.03210449
-3.545678	…°e…ĺeman	-0.03198081
-3.545678	…°i	-0.005852833
-3.545678	…°ibio	-0.03210449
-3.545678	…°idiŇč	-0.03210449
-3.545678	…°izi…Ļo	-0.03210449
-3.545678	…°iz…ôz…ôŇč	-0.03198081
-3.545678	…°i…ômak į…ôl…ômn…ô	-0.03210449
-3.545678	…°o	-0.03210449
-3.545678	…°ohiŇčai	-0.03210449
-3.545678	…°olai	-0.03210449
-3.244648	…°ona	-0.03198081
-3.545678	…°ossolake	-0.005852833
-3.545678	…°ozannip į…ĺai	-0.02762975
-3.244648	…°oŇčseni	-0.03173335
-3.545678	…°ubon	-0.03210449
-3.545678	…°ubun	-0.0318571
-3.545678	…°u čobdaŇčk į	-0.03210449
-3.545678	…°…ôg…ôdoma	-0.03210449
-3.545678	…°…ômi	-0.02949983
-3.545678	…°…ônta	-0.02762975
-3.545678	…°…ônze	-0.03210449
-3.545678	…°…ôss…ô	-0.03210449
-3.545678	…°…ôss…ôlak įi	-0.03198081
-3.545678	…°…ôzeula	-0.005852833
-3.545678	…°…ôz…ôjaipi	-0.005852833
-3.545678	…°…ôz…ôrz…ôŇč	-0.03210449
-3.545678	…°…ôz…ôz…ôŇč	-0.03210449
-3.545678	…°…ô…ĺlei	-0.03198081
-3.545678	…°…ô…ĺl…ô	-0.03136189
-3.545678	…°…ô…ĺ…ô	-0.03210449
-3.545678	…°…ĺak įozzi	-0.03210449
-3.545678	…°…ĺani	-0.03210449
-3.545678	…° į…ôn…ô…°…ôm	-0.005852833
-3.545678	…Ļa	-0.03210449
-3.545678	…Ļo	-0.03198081
-3.545678	…ĺahmomuda	-0.03210449
-3.545678	…ĺai	-0.03210449
-3.545678	…ĺau…ĺainoi	-0.03210449
-3.545678	…ĺau…ĺ…ôŇč	-0.031238
-3.545678	…ĺedi	-0.03210449
-3.545678	…ĺenigezizo	-0.03210449
-3.068557	…ĺesistens	-0.03136189
-3.545678	…ĺez…ô čain…ôŇčt į…ômona	-0.03210449
-3.545678	…ĺeŇčen	-0.03210449
-3.244648	…ĺe čai	-0.03148574
-3.545678	…ĺe čaieti	-0.03210449
-2.642588	…ĺe čaiti	-0.02937541
-3.545678	…ĺe čaitis	-0.03210449
-3.545678	…ĺia	-0.03210449
-3.545678	…ĺilizio√ß į…ôŇčnai	-0.03210449
-3.244648	…ĺiplai	-0.03173335
-3.545678	…ĺissi	-0.03210449
-3.545678	…ĺiwaieti	-0.005852833
-3.545678	…ĺoa	-0.02762975
-3.545678	…ĺoi	-0.03210449
-3.545678	…ĺok įoz…ôŇč…°a	-0.03210449
-3.545678	…ĺoz…ôŇč	-0.03210449
-3.068557	…ĺuna	-0.3822005
-3.244648	…ĺuzut įai	-0.02587704
-3.545678	…ĺuzut įaia…ĺi	-0.03198081
-3.545678	…ĺuzut įaija…ĺi	-0.03049392
-3.545678	…ĺuzut įai…ĺe	-0.03198081
-3.545678	…ĺuzut įuijia…ĺi	-0.03049392
-3.244648	…ĺ…ôs…ô	-0.02512371
-3.545678	…ĺ…ôz…ôze	-0.03210449
-3.545678	…ĺ…ôŇč	-0.03210449
-3.244648	 ča	-0.03173335
-2.943618	 čai	-0.0935865
-3.545678	 čaik įulk įu…ĺai	-0.03210449
-3.545678	 čalbonsi	-0.031238
-2.846708	 čan	-0.003745876
-3.545678	 čas čisk įo	-0.03210449
-3.545678	 čatdaha…ĺ	-0.031238
-2.203255	 če	-0.03340746
-3.545678	 čeha	-0.03210449
-3.545678	 čei	-0.03148575
-2.70058	 ček įu	-0.01546667
-3.545678	 ček įua	-0.03210449
-3.545678	 ček įuk įuso	-0.03198081
-3.545678	 ček į…ôm…ôn…ôŇč	-0.03210449
-3.545678	 ček į…ôn…ôŇčt į…ôm…ôn…ô	-0.03210449
-3.545678	 ček į…ôŇč	-0.03148575
-3.545678	 čellausiŇčsi	-0.03210449
-3.545678	 čelogo…ĺu	-0.03210449
-3.545678	 čenahaiŇčen	-0.02762975
-3.545678	 čenek įain…ô	-0.03210449
-3.244648	 čeni	-0.03198081
-3.545678	 čenif…ĺai	-0.03210449
-3.545678	 čenioz…ôŇč	-0.03210449
-3.545678	 čenis…ôn	-0.03210449
-3.545678	 čen…ôk įain…ô	-0.03136189
-3.545678	 čep įup įuz…ôŇča	-0.03210449
-3.545678	 česean	-0.03210449
-3.545678	 česeboŇč	-0.005852833
-3.545678	 česemil	-0.02762975
-3.244648	 česo	-0.03160957
-3.545678	 česolaki	-0.03210449
-3.545678	 čes…ô ča	-0.03210449
-3.545678	 čeu	-0.03210449
-3.545678	 čeza čai	-0.03210449
-3.545678	 čezeblaz…ôŇč	-0.02524936
-3.545678	 čeze čai	-0.03173335
-3.545678	 čez…ôi	-0.03136189
-3.068557	 čez…ô čai	-0.02837874
-3.545678	 če čaiti	-0.03210449
-3.545678	 če čase	-0.03210449
-2.767527	 či	-0.07106561
-3.545678	 čia	-0.03173335
-2.767527	 čidio	-0.005063922
-3.545678	 čin	-0.03210449
-3.545678	 čisat įim	-0.03210449
-3.545678	 čit į…ôŇč	-0.005852833
-3.545678	 či čait įai	-0.03061803
-3.244648	 čolt	-0.02775467
-3.545678	 č…ôs…ôunes…ô	-0.005852833
-3.545678	 č…ô…ĺd…ôŇč	-0.02949983
-3.545678	 Ěohai	-0.005852833

\2-grams:
-2.500124	<s> ai
-3.461534	<s> amalula ča
-3.461534	<s> amaro
-3.461534	<s> amuŇčs…ôn
-3.461534	<s> ane
-1.71391	<s> a…ĺa
-3.461534	<s> a…ĺai
-3.461534	<s> a…ĺni
-3.461534	<s> a…ĺo
-1.714758	<s> a…ĺ…ô
-3.461534	<s> ba
-3.461534	<s> balk įok įurmai
-3.461534	<s> bat įahatip įa…ĺ…ô
-3.461534	<s> be
-3.461534	<s> beai
-3.461534	<s> beisiman
-3.461534	<s> beiz…ô
-3.461534	<s> bek įlai
-3.461534	<s> bek įubuzibainaŇč
-3.461534	<s> bek įunumuŇč
-3.461534	<s> bek įun…ôŇčt į…ôm…ôna
-2.500124	<s> beni
-3.461534	<s> benip į…ĺai
-3.461534	<s> besaŇč
-3.461534	<s> bet…ĺi
-3.461534	<s> bewai
-3.461534	<s> bez…ôsas
-3.461534	<s> bieza čai
-2.071254	<s> biohai
-3.461534	<s> bo…° įe
-1.037217	<s> da	0.04227909
-3.461534	<s> dabei
-3.461534	<s> dabi
-3.461534	<s> dau
-3.461534	<s> daz…ôpt į…ôi
-3.461534	<s> doblait įi
-3.461534	<s> d…ôŇčs…ô
-2.500124	<s> e
-3.461534	<s> em
-3.461534	<s> ens…ô…ĺk į…ômona
-3.461534	<s> eulibk įau
-3.461534	<s> fo…ĺmula
-3.461534	<s> g…ôn…ôn…ôt į…ôk į…ôlaŇča
-3.461534	<s> g…ôso
-3.461534	<s> heŇčt įa
-3.461534	<s> h…ôŇč…ônalonio
-3.461534	<s> iema
-3.461534	<s> impo…ĺten
-3.461534	<s> indiksiŇč
-3.461534	<s> inv…ôrsli
-3.461534	<s> in…ôiz…ôŇč
-3.461534	<s> itopip į…ô…ĺ…ô
-2.500124	<s> johai
-3.461534	<s> ka…Ļen
-2.500124	<s> ka…ĺen
-3.461534	<s> ke
-2.500124	<s> kiu
-3.461534	<s> k įu…ĺman…ô
-3.461534	<s> laop įaini
-3.461534	<s> lasun
-2.500124	<s> ma
-3.461534	<s> mablababna
-3.461534	<s> mane
-3.461534	<s> manne
-3.461534	<s> me
-3.461534	<s> mena
-2.500124	<s> menif…ĺai
-3.461534	<s> menip į…ĺai
-2.500124	<s> menup į…ĺai
-3.461534	<s> men…ôp į…ĺai
-3.461534	<s> mets
-3.461534	<s> mevai
-3.461534	<s> mili
-3.461534	<s> minit
-1.714758	<s> moblib	-0.07463361
-3.461534	<s> m…ônip į…ĺai
-3.461534	<s> m…ônk į…ôl…ôŇč
-3.461534	<s> nim…ô
-2.500124	<s> n…ôŇčt į…ômona
-2.071254	<s> n…ôŇčt į…ôm…ôna
-3.461534	<s> n…ôŇčt į…ôm…ôn…ô
-3.461534	<s> obla
-3.461534	<s> ola
-3.461534	<s> p…ĺoblem
-3.461534	<s> p įa…ĺo
-3.461534	<s> p įi
-3.461534	<s> p įobla
-3.461534	<s> saintis
-3.461534	<s> saolana
-3.461534	<s> saos
-3.461534	<s> saŇčk įont įai
-3.461534	<s> sa…ĺkit
-2.071254	<s> sa…ĺs
-3.461534	<s> sa čae čas či
-3.461534	<s> se…ĺnagaŇč
-3.461534	<s> si
-2.500124	<s> siks
-3.461534	<s> sisi…ĺ
-3.461534	<s> siszen
-3.461534	<s> siŇčknek įo
-2.500124	<s> so
-3.461534	<s> sugan
-3.461534	<s> suisuba
-3.461534	<s> s…ôlai
-3.461534	<s> s…ônnaoma…ĺ…°ao
-3.461534	<s> s…ôŇč
-3.461534	<s> s…ôŇčk įont įei
-3.461534	<s> ta
-3.461534	<s> ta…ĺni
-3.461534	<s> ten
-3.461534	<s> topik
-3.461534	<s> tuelf
-3.461534	<s> t įaimn…ôŇč…°…ôn
-3.461534	<s> t įanaŇčd…ôn
-3.461534	<s> t įaŇčz…ôn
-3.461534	<s> t įa…ĺa
-3.461534	<s> t įa…ĺaibaz…ôŇč
-3.461534	<s> t į…ôŇčz…ôŇč
-3.461534	<s> t į…ôŇč…ĺa
-3.461534	<s> uan
-3.461534	<s> udegaz…ôzi
-3.461534	<s> unni
-3.461534	<s> vaŇčsumau
-3.461534	<s> za
-3.461534	<s> zainigeziz…ôŇč
-3.461534	<s> zaip į…ô…ĺai
-2.500124	<s> ze
-3.461534	<s> zeik įize
-3.461534	<s> ze čla
-3.461534	<s> zinei
-2.500124	<s> zudi
-3.461534	<s> zudibek įubak įai
-2.500124	<s> z…ôŇč
-3.461534	<s> z…ôŇča
-2.071254	<s> z…ôŇčga
-3.461534	<s> z…ôŇčhai
-3.461534	<s> z…ôŇčzahao
-2.071254	<s> z…ôŇč…°a
-3.461534	<s> √ß įiduŇčk įese
-3.461534	<s> Ňč…ôŇčt įa
-3.461534	<s> …°u čobdaŇčk į
-3.461534	<s> …ĺe čaitis
-3.461534	<s> …ĺ…ôŇč
-3.461534	<s>  čan
-2.071254	<s>  če
-3.461534	<s>  čellausiŇčsi
-3.461534	<s>  či čait įai
-1.145564	a n…ôŇčt į…ôm…ôn…ô
-1.145564	adaŇč </s>
-1.145564	ae be
-1.145564	agolo aŇčk į…ô
-1.145564	agoloson …ĺai
-2.186956	ai bek įu
-2.186956	ai da
-0.4393327	ai ikual	0.4771213
-2.186956	ai intu
-2.186956	ai mane
-2.186956	ai t įamet ča
-2.186956	ai z…ô
-2.186956	ai  ček įu
-1.145564	aia…°o s…ôman
-1.145564	aia…ĺ bek į…ô
-1.145564	aikon zat į…ôz…ôŇč
-1.145564	aini zez…ôŇč
-1.145564	aiohai </s>
-0.4851839	ait om	0.218567
-1.446594	aitin be
-1.446594	aitin elect…ĺot įaid
-1.145564	ait į…ôŇč ka…ĺenn…ô
-1.145564	aizen </s>
-1.145564	aiz…ô t į…ôŇčz…ôŇč
-1.145564	ak…ôlaŇčz…ô čai </s>
-1.145564	ak įi naz…ôŇčnalan
-1.145564	ak įia  čep įup įuz…ôŇča
-1.145564	ak įilanz…ô čai a…ĺ…ô
-1.145564	ak įinila piksa…ĺ
-1.622685	ak įin…ô baz…ôŇč…°a
-1.622685	ak įin…ô hae
-1.622685	ak įin…ô n…ôŇč…°…ôn
-1.446594	ak įut įaini sajao
-1.446594	ak įut įaini seob
-1.145564	ak į…ôk į…ô…ĺ čain…ôŇčd…ôn </s>
-1.145564	al boŇčsi
-1.145564	alsend…ĺo volta
-1.145564	al…ôŇč…ôz…ôn be
-1.145564	amalula ča me čai
-1.145564	amaro misi
-1.145564	amma da
-1.145564	amus sa
-1.145564	amuŇčs…ôn kont įe
-1.145564	anaga se
-1.145564	anaha…°an m…ônse
-1.446594	anai tuelf
-1.446594	anai t įatua…ĺi
-1.145564	anaid…ôŇč zi…ĺo
-1.145564	ane z…ôŇč
-1.145564	anei unnisau…ĺ…ôn…ôz…ôŇč…°a
-1.622685	ani a…ĺaz…ôk į…ôk įo
-1.622685	ani moblib
-1.622685	ani nik įid
-1.145564	an…ôi …° į…ôn…ô…°…ôm
-1.145564	apt į…ôn…ôm…ôd…ôŇč ha…ĺabosusiŇčz…ôŇč…°a
-1.145564	ar…ô namb…ô…ĺ
-1.145564	asahalamnai men…ôp į…ĺai
-1.145564	asaido t į…ôŇčo
-1.145564	asaŇč keta
-1.145564	ase a…ĺ…ôz…ôŇč
-1.145564	asin beta…ĺko
-1.145564	as…ôŇč kont įai
-1.145564	atsa san…ôi
-1.145564	au…ĺ…ôilit į…ô…°…ô n…ôŇč…ôz…ôŇča
-1.145564	azab t įai
-1.145564	azaŇča ka…ĺen
-1.145564	aza čai biti
-1.145564	aŇč m…ômse
-1.145564	aŇčas…ôi ha ča
-1.145564	aŇčban…ĺai k…ôpi
-1.145564	aŇčgan be
-1.145564	aŇčg…ôn mili
-1.145564	aŇčk į…ô naŇčmai
-1.145564	aŇčnat įe mun…ô
-1.446594	a…°an a…ĺa
-1.446594	a…°an beni
-1.145564	a…°aŇčsonise so
-1.145564	a…°en …°…ôzeula
-1.145564	a…°se apt į…ôn…ôm…ôd…ôŇč
-1.145564	a…°teat įiŇč …ĺe čaiti
-1.145564	a…°…ôn  čez…ô čai
-1.145564	a…Ļa b…Ēi
-1.990662	a…ĺ ikuel
-1.990662	a…ĺ inv…ô…ĺsli
-1.029252	a…ĺ iz
-1.990662	a…ĺ k į…ôz…ôŇča
-1.990662	a…ĺ manema
-1.990662	a…ĺ mi
-1.186648	a…ĺa </s>
-2.576927	a…ĺa a…ĺ√ß į…ôc įiŇč
-2.576927	a…ĺa be
-2.576927	a…ĺa bek įluk įuz…ô
-2.576927	a…ĺa beta…ĺtoz…ôŇč…°a
-1.615518	a…ĺa biohai
-2.576927	a…ĺa bip įai
-1.615518	a…ĺa haban…ô	0.1354098
-2.576927	a…ĺa ka…ĺeks…ôn
-2.576927	a…ĺa maik…ĺo
-2.576927	a…ĺa mak į…ôz…ôz…ôŇč
-2.576927	a…ĺa maulaoas…ôn…ôn
-2.576927	a…ĺa meniu…ĺ
-2.576927	a…ĺa mesaŇč
-2.576927	a…ĺa n…ôŇčt į…ôm…ôna
-2.576927	a…ĺa simbol
-1.615518	a…ĺa t įahati	-0.02359113
-2.576927	a…ĺa voltmita…ĺ
-2.576927	a…ĺa zabai
-2.576927	a…ĺa zeblanik įiŇč
-2.576927	a…ĺa zipt į…ôŇč…ô
-2.576927	a…ĺa …ĺiplai
-1.145564	a…ĺabelnek įae n…ôŇčt į…ôŇčm…ôn…ô
-1.145564	a…ĺab…ô biohai
-1.145564	a…ĺaebeni p įa…ĺm…ô
-1.446594	a…ĺai biohai
-1.446594	a…ĺai z…ôd…ôŇč
-1.145564	a…ĺanie če mi čaz…ô čai
-1.145564	a…ĺanligo…ĺanma k įom
-1.145564	a…ĺan…ôn n…ônt į…ômonaiz…ô
-1.446594	a…ĺas…ô kontai
-1.446594	a…ĺas…ô kunt įeini
-1.145564	a…ĺas…ôŇčz…ôŇča …ĺe čaiti
-1.145564	a…ĺatma anaid…ôŇč
-1.145564	a…ĺau …ĺe čai
-1.145564	a…ĺaz…ôk į…ôk įo ze
-1.145564	a…ĺaz…ôt į…ôzaŇča </s>
-1.446594	a…ĺaz…ôŇč mobaudusomant įai
-1.446594	a…ĺaz…ôŇč m…ônsi
-1.145564	a…ĺaz…ôŇčs…ôbik įo  čas čisk įo
-1.145564	a…ĺial hoŇčnamuda
-1.145564	a…ĺk įu …ĺe čaiti
-1.145564	a…ĺne heŇčt įa
-1.446594	a…ĺni bek įu
-1.446594	a…ĺni m…ônk į…ôsi…ôŇč
-1.145564	a…ĺo sabi
-1.145564	a…ĺ√ß į…ôc įiŇč </s>
-1.454254	a…ĺ…ô </s>
-2.844534	a…ĺ…ô beduz…ôd…ô
-2.844534	a…ĺ…ô bek įain…ô
-2.844534	a…ĺ…ô bek įol
-1.883124	a…ĺ…ô bek įun…ô
-2.844534	a…ĺ…ô bet įiŇč
-1.454254	a…ĺ…ô biohai
-2.844534	a…ĺ…ô dabe
-2.844534	a…ĺ…ô emit…ô…ĺ
-2.844534	a…ĺ…ô ha ča
-2.844534	a…ĺ…ô imit…ô…ĺ
-1.883124	a…ĺ…ô johai
-2.844534	a…ĺ…ô ka…ĺen
-2.844534	a…ĺ…ô kiu
-1.883124	a…ĺ…ô ma
-2.844534	a…ĺ…ô m…ônse
-2.844534	a…ĺ…ô nibisin
-2.844534	a…ĺ…ô n…ôŇčt į…ômona
-2.844534	a…ĺ…ô n…ôŇčt į…ôm…ôn…ô
-2.844534	a…ĺ…ô sabse
-2.844534	a…ĺ…ô sa…ĺsni
-2.844534	a…ĺ…ô sa č
-2.844534	a…ĺ…ô s…ôŇč
-2.844534	a…ĺ…ô taim
-2.844534	a…ĺ…ô tun
-2.844534	a…ĺ…ô t įahati
-2.844534	a…ĺ…ô t įaha…ĺt įi
-2.844534	a…ĺ…ô t įo…ĺse
-2.844534	a…ĺ…ô t į…ôŇč…°…ô…ĺ
-2.844534	a…ĺ…ô vol
-2.844534	a…ĺ…ô voltmita…ĺk įo
-2.844534	a…ĺ…ô zebla
-2.844534	a…ĺ…ô ze čai
-2.844534	a…ĺ…ô ziŇčzei
-1.883124	a…ĺ…ô z…ô
-2.844534	a…ĺ…ô z…ôŇčga
-1.09691	a…ĺ…ô z…ôŇč…°a
-2.844534	a…ĺ…ô …°olai
-2.844534	a…ĺ…ô  ček įu
-1.145564	a…ĺ…ône čei za
-1.145564	a…ĺ…ônn…ô so
-1.145564	a…ĺ…ôzodi …°oŇčseni
-1.145564	a…ĺ…ôz…ô n…ôpt įao…°an
-1.446594	a…ĺ…ôz…ôŇč be
-1.446594	a…ĺ…ôz…ôŇč oni
-1.145564	a ček įi n…ôŇčt į…ômona
-1.990662	ba eks
-1.990662	ba imita…ĺ
-1.990662	ba ka…ĺen
-1.990662	ba kiu
-1.990662	ba lek įa
-1.990662	ba t įak įizio
-1.990662	ba t įamet ča
-1.145564	bahainai ze
-2.259507	bai </s>
-2.259507	bai ai
-2.259507	bai aini
-2.259507	bai aitin
-2.259507	bai a…ĺ
-1.298097	bai e
-2.259507	bai n…ôŇčt į…ômona
-2.259507	bai sa…ĺs
-1.298097	bai ti
-2.259507	bai uan
-2.259507	bai  čan
-1.145564	bain…ôz…ôi …ĺesistens
-1.145564	balb …ĺuna
-1.145564	balba z…ôŇčga
-1.145564	balban…ô bap įius
-1.145564	balbaz…ôŇč naga
-1.145564	balk įok įurmai …ôr…ô
-1.145564	balk įulla mablabap įius
-1.145564	banai m…ônsei
-1.145564	bap įius t įaŇčna
-1.145564	base n…ôŇčt į…ôŇčm…ôn…ô
-1.145564	baseŇč kont įai
-1.145564	basu…ĻasuŇčsei z…ôŇča
-1.145564	battaha…ĺbohinai bek įu
-1.145564	bat įahatip įa…ĺ…ô mak į…ôoŇča
-1.145564	bat įi  čezeblaz…ôŇč
-1.145564	bat įibaba…ĺk įua olan…ôŇčt į…ôm…ôn…ô
-1.145564	bau da
-1.145564	baz…ôŇč…°a se
-1.145564	baŇč ni…°emeŇčt į…ôiza
-1.145564	baŇčk…ĺain moblib
-1.145564	baŇčnai l…ô…°…ô
-1.145564	baŇč…°a bene
-1.145564	baŇč…°…ĺe k įu
-1.145564	baŇč…ĺai bibaŇči
-1.145564	baŇč…ĺaizebula z…ôŇča
-1.145564	ba…ô biohai
-1.145564	ba…°amiss…ô…Ļ…ôu rai
-1.145564	ba…ĺabeti t į…ôi čaz…ôŇč
-1.145564	ba…ĺa…° elect…ĺik
-1.145564	ba…ĺbo…ô…°an olan…ôŇčt į…ôm…ôn…ô
-1.145564	ba…ĺk įu z…ôŇčg…ô
-1.145564	ba…ĺk įuz…ôn…ôngai z…ôŇčga
-1.145564	ba…ĺma…ĺsek įo ze član
-1.145564	ba…ĺsohonnai moŇčale
-1.145564	ba…ĺtan bik įuma
-1.145564	ba čni m…ônse
-2.713765	be </s>
-2.713765	be ai
-2.713765	be a…ĺa
-2.713765	be a…ĺial
-2.713765	be balk įulla
-2.713765	be ba…ĺk įuz…ôn…ôngai
-2.713765	be bindeni
-2.713765	be bindo
-2.713765	be dedin…°…ĺani
-2.713765	be denin…°…ĺani
-2.713765	be gezez…ôŇč
-2.713765	be heŇčt įa
-2.713765	be intisin
-2.713765	be kelkuleson
-2.713765	be k įuliŇčnai
-2.713765	be k į…ôl…ômla
-2.713765	be laot į…ôŇčs…ôz…ôŇč
-2.713765	be met…ĺi
-2.713765	be moblib
-2.713765	be moŇčsi
-2.713765	be muŇčni
-2.713765	be m…ônnei
-2.713765	be nettez…ôŇč…ô
-2.713765	be ni če
-2.713765	be n…ôŇčt į…ônm…ô
-2.713765	be n…ôŇčt į…ôŇčmunni
-2.713765	be omni
-2.713765	be osadni
-2.713765	be salea
-2.713765	be somman
-2.713765	be twel
-2.713765	be t įahat įi
-2.713765	be uzeŇč
-2.713765	be vai
-2.713765	be z…ôŇčai
-2.713765	be …ĺilizio√ß į…ôŇčnai
-2.713765	be …ĺok įoz…ôŇč…°a
-1.145564	beai karen
-1.145564	beb…ôike m…ôs…ôsi
-1.145564	bediŇč k įop įuz…ôŇčnaize
-1.145564	beduz…ôd…ô t įeŇčnai
-1.145564	beguguz…ô s…ôlak įi
-1.145564	beha buŇča
-1.145564	behu n…ôŇčt į…ôm…ôn…ô
-1.145564	beh…ôn n…ôŇčt į…ôŇčm…ôna
-1.145564	beik įis </s>
-1.145564	beimmizi ohuigoman
-1.145564	beisiman z…ôn
-1.145564	beis…ôn kont įaini
-1.145564	beiz…ô sa…ĺs…ôk į…ôl
-1.145564	bek įa n…ôŇčt į…ômona
-1.446594	bek įai n…ôŇčnai
-1.446594	bek įai n…ôŇčt į…ôm…ôn…ô
-1.145564	bek įain…ô z…ôŇč…°a
-1.145564	bek įe Ňč…ôŇčt į…ôn
-1.446594	bek įi k įilin…ôn…ôŇča
-1.446594	bek įi m…ôz…ô
-1.145564	bek įlai eksk įalamnai
-1.145564	bek įluk įuz…ô ti
-1.446594	bek įo omne
-1.446594	bek įo se
-1.145564	bek įol s…ôs…ôime…°en…°ioni
-2.259507	bek įu be čai
-2.259507	bek įu biniza
-2.259507	bek įu buz…ô čai
-2.259507	bek įu muŇč…°a
-2.259507	bek įu m…ôns…ô
-2.259507	bek įu nan…ôŇč
-2.259507	bek įu n…ôŇčt į…ôm…ôn…ô
-2.259507	bek įu p įo…ĺmula
-2.259507	bek įu s…ôŇč…°a
-0.8692272	bek įu z…ôŇč…°a
-2.259507	bek įu …ĺ…ôs…ô
-1.145564	bek įubuzibainaŇč asahalamnai
-1.145564	bek įuna m…ôŇčna
-1.622685	bek įuni t įa
-1.622685	bek įuni t įaboŇčnai
-1.622685	bek įuni zaha
-1.145564	bek įunumuŇč muŇčn…ôz…ôda
-1.446594	bek įun…ô bek įuni
-1.446594	bek įun…ô heŇčt įa
-1.145564	bek įun…ôŇčt į…ôm…ôna ius
-1.145564	bek įuz…ôbla os…ôŇč
-1.145564	bek įuz…ôŇč…°a …ĺe čaiti
-1.145564	bek įu…ĺni s…ôn
-1.622685	bek į…ô n…ôŇčt į…ôm…ôna
-1.622685	bek į…ô n…ôŇčt į…ôm…ôn…ô
-1.622685	bek į…ô n…ô…°…ôm
-1.145564	bek į…ôi n…ôŇčt į…ôŇčm…ôna
-1.145564	bek į…ôn…ô muk…ô
-1.145564	bek į…ôziŇč met įi ča
-1.145564	belena n…ôŇčt į…ôm…ôna
-1.145564	belip įenis…ô p įag…ônn…ô
-1.145564	bemoblib sa…ĺsni
-1.145564	bemunidi p įin…ôs…ô
-1.145564	bene zad…ô
-2.224745	beni k įama
-2.224745	beni k įamani
-2.224745	beni k į…ôin…ô
-2.224745	beni laot įaini
-2.224745	beni laot įeini
-2.224745	beni muap į…ĺai
-2.224745	beni munip į…ĺo
-2.224745	beni m…ônsei
-2.224745	beni saio
-2.224745	beni t į…ôŇč…°…ô
-2.224745	beni …°eziz…ôŇč
-2.224745	beni …°…ôz…ôz…ôŇč
-1.145564	benia sa…ĺ č…ôk įu
-1.145564	benimo k į…ôt įai
-1.622685	benip į…ĺai besima
-1.622685	benip į…ĺai maun…ôŇčt į…ôn…ô
-1.622685	benip į…ĺai omni
-1.145564	beniza </s>
-1.145564	beniz…ôbai beni
-1.145564	beo …ĺoa
-1.145564	beost įaksa t į…ôŇčn…ô
-1.145564	beoz…ôŇč…°a kanek įlaoke
-1.145564	bep įanis…ôŇč z…ôŇč…°a
-1.145564	bep įa…ĺnaisao t įeŇčnai
-1.145564	bep įla…ĺ moblib
-1.145564	bep įomolak įala anei
-1.145564	bep įo…ĺmule ese
-1.145564	bep į…ô…ĺauba ma…ĺ…ô
-1.145564	besa z…ôŇč
-1.145564	besau ča…ĺi k įiz…ô
-1.145564	besaŇč ka…ĺen
-1.145564	besa…ĺs t į…ôŇčhanaio
-1.145564	beseba ha ča
-1.145564	besebaŇč moblib
-1.145564	besepe nidibi
-1.145564	besi lionadehaŇčna…°a
-1.145564	besik sandai
-1.145564	besima lage
-1.145564	besin mu…Ļlisim
-1.446594	besiŇč bo…ĺs…ô…°…ô
-1.446594	besiŇč dak įot įai
-1.145564	besiŇčk įala lin…ô
-0.4851839	beso la…°e	0.1354098
-1.145564	besolak įi a…ĺ…ô
-1.145564	besum…ôi zeŇč…°a
-1.145564	bes…ôba laot įaiz…ô…°…ôn
-1.145564	bes…ôn k…Ēntai
-1.145564	bes…ôŇčha čamonaz…ôŇč bek įuna
-1.446594	beta…ĺi e ča
-1.446594	beta…ĺi …ĺuna
-1.145564	beta…ĺko </s>
-1.145564	beta…ĺtoz…ôŇč…°a buŇč…°o
-1.622685	bet…ĺi gelaz…ôŇč
-1.622685	bet…ĺi impo…ĺt…ôn
-1.622685	bet…ĺi naŇčsa…ĺgan
-1.145564	bet įiŇč bek į…ôziŇč
-1.145564	beu ohai
-1.145564	bewai nist įasa
-1.145564	bezo fo…ĺasi
-1.145564	bez…ôsas saua…ĺi
-1.145564	bez…ô čai m…ônne
-1.145564	be…°eziŇč mam…ônd…ôŇč
-1.145564	be…°un…°…ĺani </s>
-1.923715	be čai be čai
-1.923715	be čai dibuŇč
-1.923715	be čai din…ôŇčt į…ôz…ô
-1.923715	be čai k į…ôl…ômn…ôi
-1.923715	be čai linna
-1.923715	be čai tie
-1.145564	be čaidis siŇč…°o
-1.145564	be čaiki ak įi
-1.145564	be čaik…ô n…ôŇčt į…ôŇčm…ôna
-1.622685	be čaiti hanti
-1.622685	be čaiti n…ôŇčt į…ôŇčamazea
-1.622685	be čaiti saz…ôinez…ôi
-1.145564	be čaitiz…ôi t įamet ča
-1.145564	be časuŇča suŇča
-1.145564	bi t į…ôŇčai
-1.446594	bia boa
-1.446594	bia ma…ĺzaia
-1.145564	bibaik įo dihun
-1.145564	bibaŇči moblib
-1.145564	bibaŇčk įo dihun
-1.145564	bideni …°eze…ĺz…ôŇč
-1.145564	bidenifez…ôŇč t įahate
-1.145564	bidibouna </s>
-1.145564	bieza čai musei
-1.145564	bigiangi…ĺi end…ĺi
-1.145564	bik įaŇč m…ôz…ô
-1.145564	bik įuma moblib
-1.145564	bik įun…ô k įuŇčnaz…ôda
-1.145564	bik į…ôŇč m…ôsei
-1.145564	bindeni moblib
-1.145564	bindesim sima
-1.446594	bindo moneni
-1.446594	bindo monne
-1.145564	biniza kulmaeti
-1.145564	bint įi biohai
-1.145564	binuna muna
-1.145564	bio </s>
-1.145564	bioe ese
-1.675516	biohai </s>
-2.636925	biohai aŇč
-2.636925	biohai be
-2.636925	biohai buŇčgaiz…ôd…ôŇč
-2.636925	biohai dapel
-2.636925	biohai diu
-2.636925	biohai gi
-2.636925	biohai libonai
-2.636925	biohai mam…ôŇčn…ôi
-2.636925	biohai manahnei
-2.636925	biohai mank į…ô…ĺ…ôn
-2.636925	biohai mas…ôŇčnai
-2.636925	biohai moblib
-1.675516	biohai m…ônse
-2.636925	biohai nunu
-2.636925	biohai n…ôn…ôm…ôd…ôn
-2.636925	biohai n…ôn…ôm…ôna
-2.636925	biohai n…ôt į…ôŇčmona
-2.636925	biohai n…ôŇčboad…ôŇč
-1.675516	biohai n…ôŇčt į…ômona
-2.636925	biohai n…ôŇčt į…ôm…ôn…ô
-2.636925	biohai n…ôŇčt į…ôn…ôn…ô
-2.636925	biohai si
-2.636925	biohai t įahati
-2.636925	biohai volta
-2.636925	biohai z…ôŇča
-2.636925	biohai z…ôŇčt įahatip į…ô…ĺ…ôŇč
-2.636925	biohai …ô…ĺa
-1.145564	biohaissa …ôz…ôŇčz…ô
-1.145564	biok įai n…ôŇčt į…ôn
-1.145564	biosez…ôŇčnam…ô a…ĺanie če
-1.145564	bip įai z…ôb…ôŇč
-1.145564	bisim mu…Ļt įeklam
-1.145564	bissi samm…Ēn
-1.145564	bis…ôŇčau mas…ôŇčoi
-1.145564	bis čisano liŇčk į…ônaidoŇčo
-1.145564	biti a…ĺa
-1.145564	bit įiŇč daz…ôpt įai
-1.145564	bizao g…ôl…ôzi
-1.145564	biz…ôŇč uk įeni
-1.145564	biz…ô čo bio
-1.145564	bi…ô z…ôŇč…°a
-1.622685	bi…°en bi…ĺia
-1.622685	bi…°en mili
-1.622685	bi…°en …°e…ĺeman
-1.145564	bi…°ian…°i…ĺi alsend…ĺo
-1.145564	bi…ĺia gehunanam
-1.145564	blasenbidzi mominta
-1.145564	bluzu t įie…ĺ…ô
-1.446594	bo k įola
-1.446594	bo l…ô…°…ôn
-1.446594	boa m…ônse
-1.446594	boa m…ônsi
-1.145564	bobli k įu…ĺi…ĺnado
-1.145564	bobliŇčni n…ô…°…ôz…ôn
-1.145564	boha…°a o…ĺla
-1.145564	bohenna maulaba
-1.145564	bohidiŇč bo…ĺua
-1.145564	bok įu dediŇč…ĺani
-1.145564	bol aikon
-1.145564	bolni ola
-1.145564	bonp įu…ĺluhunai…°id…ôŇč boŇčsi
-1.145564	bonsi  čalbonsi
-1.446594	bosau ča…ĺi dit įiadi
-1.446594	bosau ča…ĺi g…ôt į…ôŇč
-1.622685	boŇčnai zeŇčnai
-1.622685	boŇčnai z…ôd…źŇč
-1.622685	boŇčnai z…ôz…ôŇč
-1.145564	boŇčnip į…ĺai  če
-1.145564	boŇčse lobi
-1.446594	boŇčsi hant įi
-1.446594	boŇčsi sana
-1.145564	boŇčsidai z…ôŇčz…ôŇč
-1.145564	boŇč…ôla m…ônse
-1.145564	boŇč…°a zesiba
-1.145564	bo…° įe  ča
-1.145564	bo…ĺla m…ônse
-1.145564	bo…ĺo m…ônse
-1.145564	bo…ĺs…ô…°…ô la…°i
-1.145564	bo…ĺua m…ônse
-1.145564	bubaia t įaŇčbai
-1.145564	bugo mansemuak į…ô
-1.145564	buhi nai
-1.145564	buzdail t įa…ĺaz…ôŇč
-1.145564	buze nan…ôlag…ô
-1.145564	buzek į…ô n…ôŇčt į…ômona
-1.622685	buzi ikuenaga
-1.622685	buzi muni…°o
-1.622685	buzi nalage
-1.145564	buz…ô čai zamanu
-1.446594	buŇča </s>
-1.446594	buŇča haŇčai
-1.145564	buŇčgaiz…ôd…ôŇč da
-1.145564	buŇčgo dani
-1.446594	buŇčko…ĺola n…ôt į…ôŇčmonalenade
-1.446594	buŇčko…ĺola  č…ô…ĺd…ôŇč
-1.145564	buŇčna z…ôd…ô
-1.844534	buŇčnai z…ô
-0.8831239	buŇčnai z…ôd…ô
-1.844534	buŇčnai z…ôd…ôŇč
-1.844534	buŇčnai z…ôi
-1.145564	buŇčn…ôi ze
-1.145564	buŇč…°o m…ônsita…ĺ
-1.145564	bŇčnaiz…ôd…ôŇč biohai
-1.747624	b…Ēi b…Ēi
-1.747624	b…Ēi habab…Ē…°…Ēbim…Ē
-1.747624	b…Ēi muk įabai
-1.747624	b…Ēi m…ô
-1.145564	b…Ēioi mit√ß įei
-1.145564	b…ôhi n…ôz…ôŇč
-1.145564	b…ôik į…ô n…ôŇčt į…ôŇčm…ôn…ô
-1.145564	b…ôk į…ô  česo
-1.145564	b…ôp į…ô…ĺ mo…°alasai
-1.145564	b įolt ikual
-2.779032	da </s>
-2.779032	da aŇčnat įe
-1.817622	da be
-2.779032	da beo
-2.779032	da bep į…ô…ĺauba
-2.779032	da besau ča…ĺi
-2.779032	da bes…ôn
-2.779032	da be čaiti
-2.779032	da bidibouna
-2.779032	da bik į…ôŇč
-1.817622	da biohai
-2.779032	da el…ôn…ôz…ôŇč
-2.779032	da ent įaŇč
-2.779032	da g…ô…Ļli
-2.779032	da kusno
-2.779032	da laot įai…°…ôn
-2.779032	da menif…ĺai
-2.779032	da mit įaŇčnifai
-1.031408	da moblib	0.1504393
-2.779032	da mu
-2.779032	da n…ôt į…ôŇčmona
-1.817622	da n…ôŇčt į…ôm…ôna
-2.779032	da n…ôŇčt į…ôm…ôn…ô
-2.779032	da n…ôŇčt į…ôŇčm…ôn…ô
-2.779032	da omni
-2.779032	da past įaona
-2.779032	da pi…Ēhai
-2.779032	da p įo…ĺes…ô
-2.779032	da sa ča…ĺan
-2.779032	da simbol
-2.779032	da vezewai
-2.779032	da zeblaŇčhi
-2.779032	da z…ôŇč
-2.779032	da z…ôŇč…°i
-2.779032	da …°i…ômak į…ôl…ômn…ô
-2.779032	da …°…ômi
-2.779032	da  ček įu
-1.145564	dabe si
-1.145564	dabei k į…ôn…ômu
-1.145564	dabi ka…ĺen
-2.424317	daha…ĺ </s>
-2.424317	daha…ĺ a…ĺaebeni
-1.462908	daha…ĺ a…ĺas…ô
-2.424317	daha…ĺ boha…°a
-2.424317	daha…ĺ bohidiŇč
-2.424317	daha…ĺ buŇčgo
-2.424317	daha…ĺ empija…ĺ
-2.424317	daha…ĺ gusununado
-2.424317	daha…ĺ husunai
-2.424317	daha…ĺ inkuizaie
-2.424317	daha…ĺ koa
-2.424317	daha…ĺ k įobona
-2.424317	daha…ĺ k įommili
-2.424317	daha…ĺ k įufu…ĺmano
-2.424317	daha…ĺ munnaizei
-2.424317	daha…ĺ nesen
-2.424317	daha…ĺ t įhamet ča
-2.424317	daha…ĺ …ô…ĺ…ôz…ôŇč
-1.446594	daha…ĺa baŇčnai
-1.446594	daha…ĺa uan
-1.145564	daha…ĺni t įaŇčz…ôŇč
-1.145564	dairekson ka…ĺen
-1.622685	dai…ĺekli pr…ôpo…ĺs…ônel
-1.622685	dai…ĺekli p…ĺopo…ĺs…ôn…ôl
-1.622685	dai…ĺekli t įau…ĺa
-1.622685	dak įot įai be čaitiz…ôi
-1.622685	dak įot įai bit įiŇč
-1.622685	dak įot įai daz…ôpt įai
-1.145564	danak į t įai
-1.145564	dani </s>
-1.145564	danse ta…ĺni
-1.145564	dans…ôni soblait įini
-1.145564	dapel n…ôŇčt į…ôŇč
-1.145564	dap įu…ĺ ok įul
-1.145564	dasas…ôoni doblait įini
-1.145564	dau k įo…ĺes…ô
-1.145564	dazabt įai sa…ĺsk įa
-1.145564	dazabt įaihanname čai n…ôŇčt į…ôŇčm…ôn…ô
-1.145564	dazabt įei sa…ĺsk įa
-1.446594	daz…ôpt įai a…ĺ…ô
-1.446594	daz…ôpt įai dak įot įai
-1.145564	daz…ôpt į…ôi dak įot įai
-1.145564	daz…ôŇč mua
-1.145564	daŇča </s>
-1.145564	da…ĺekson ka…ĺen
-1.446594	deden…°ani p įa…ĺne
-1.446594	deden…°ani …°eze…ĺo
-1.145564	deden…°…ĺani p įa…ĺne
-1.145564	dedeŇč…ĺani heŇčt įai
-1.145564	dede…ĺma d įatup į…ô…ĺ…ôuma
-1.446594	dedin mabaide
-1.446594	dedin …°…ĺani
-1.145564	dedine…°eziz…ôŇč baŇč…ĺai
-1.145564	deding…ĺa bes…ôba
-1.145564	dedinnaij…ô…ĺ ba
-1.622685	dedin…°…ĺani hamani
-1.622685	dedin…°…ĺani heŇčt įa
-1.622685	dedin…°…ĺani t įeŇčt įai
-1.145564	dediŇč…°…ĺani doblait įi
-1.446594	dediŇč…ĺani p įa…ĺn…ô
-1.446594	dediŇč…ĺani …ĺuzut įuijia…ĺi
-1.145564	ded…ôn …°aondi…°…ôz…ôz…ôŇč
-1.145564	deit…ôn banai
-1.145564	denin…°…ĺani t į…ô…ĺ…ôm
-1.145564	de…°in na…°e…°iz…ôŇč
-2.145564	di aitin
-2.145564	di ham…ôk į…ô
-1.184154	di paua…ĺ
-2.145564	di paue…ĺ
-1.184154	di pauva…ĺ	0.1354098
-2.145564	di pau…ô…ĺ
-1.184154	di pau ča…ĺ
-1.145564	dia…°…ĺam baseŇč
-1.145564	dia…°…ĺamni …°…ôz…ôrz…ôŇč
-1.446594	dibuŇč pu…ĺlu
-1.446594	dibuŇč pu…ĺluhuli
-1.145564	didau la
-1.145564	did…ôm buŇčna
-1.145564	dieg…ĺam ak įinila
-1.145564	difa…ĺens bep įanis…ôŇč
-1.145564	dif…ô…ĺens da
-1.446594	dihun benimo
-1.446594	dihun da
-1.145564	diksei zaida
-1.145564	din√ß įiŇčeize a…ĺ…ô
-1.145564	din…ôŇčt į…ôz…ô  ček įu
-1.145564	dissa savanne…ĺi
-1.145564	distens si
-1.145564	dit įiadi danse
-1.145564	diu na
-1.145564	divaid bai
-1.145564	diziŇčae a…ĺ…ô
-1.145564	diz…ôi be čaik…ô
-0.4851839	di čaid bai
-1.145564	doa  čia
-1.446594	doblait įi haŇčnai
-1.446594	doblait įi mane
-1.145564	doblait įini s…ôn…ôi…ô…°…ôn
-1.747624	dobliu a…ĺ…ô
-1.747624	dobliu ba
-0.7862139	dobliu  čai	0.040881
-1.145564	dot kom
-1.145564	doziz…ô sant…ôl…ôz…ôŇčga
-1.145564	dusaŇč nai
-1.145564	dusumi sio
-1.145564	dusunibeo m…ônse
-1.145564	d…ôm zeula
-1.145564	d…ônb…ôi gesin
-1.446594	d…ôŇča </s>
-1.446594	d…ôŇča a…ĺatma
-1.145564	d…ôŇčs…ô naik…ĺom
-1.145564	d įattu a…ĺ…ô
-1.145564	d įattup į…ô…ĺ…ô z…ôb…ôd
-1.145564	d įatu p į…ô…ĺ…ô
-1.145564	d įatup į…ô…ĺ…ôuma bep įa…ĺnaisao
-1.990662	e bek į…ô
-1.990662	e ikual
-1.990662	e mita…ĺ
-1.990662	e n…ôŇčt į…ôm…ôn…ô
-1.990662	e ut įa
-1.990662	e …°eze…ĺao
-1.990662	e  čatdaha…ĺ
-1.145564	eba z…ô…≥n…ô
-1.145564	edi lenahaŇčna
-1.145564	edna…ĺ a…ĺ
-1.145564	ef…ĺaiz…ôŇč man…ôz…ôŇč
-1.145564	eihenadoŇč ai
-1.145564	eis…ôŇč kont įaini
-1.446594	eks eksis
-1.446594	eks la
-1.446594	eksis t į…ôŇčbiohai
-1.446594	eksis z…ô
-1.145564	eksk įalamnai nazaŇča
-1.145564	ekui sunni
-1.145564	ek įana sali
-1.145564	ek įe…ĺok įame baŇč…°a
-1.145564	ek įin…ôn…ô aŇčban…ĺai
-1.145564	ek įu z…ôŇč…°a
-1.446594	el a…ĺ…ô
-1.446594	el bai
-1.145564	ela eihenadoŇč
-1.145564	elect…ĺik potensiel
-1.145564	elect…ĺot įaid me čai
-1.145564	elekt…ĺo mont įai
-1.145564	elekt…ĺon uan
-1.145564	el…ôn…ôz…ôŇč no…Ļmeli
-1.145564	em ese
-1.145564	emez…ônz…ôŇč niz…ôzai
-1.446594	emita…ĺ ni…°eziz…ôŇč
-1.446594	emita…ĺ …ĺuna
-1.145564	emit…ô…ĺ h…ôŇčnai
-1.145564	empia…ĺ a…ĺ…ô
-1.446594	empie…ĺ </s>
-1.446594	empie…ĺ obla
-2.376013	empija…ĺ </s>
-1.414603	empija…ĺ a…ĺa
-2.376013	empija…ĺ biohai
-2.376013	empija…ĺ karen
-2.376013	empija…ĺ ma
-2.376013	empija…ĺ ni√ß įam
-2.376013	empija…ĺ ten
-2.376013	empija…ĺ t įaien…ôŇčt į…ômona
-2.376013	empija…ĺ za
-2.376013	empija…ĺ zada
-2.376013	empija…ĺ z…ô
-2.376013	empija…ĺ z…ôd…ôŇč
-2.376013	empija…ĺ z…ôŇč
-2.376013	empija…ĺ z…ôŇčga
-2.376013	empija…ĺ …ôz…ôŇč
-2.376013	empija…ĺ  čan
-0.6612751	empija…ĺ…ô maz…ôg…ôn
-1.622685	empija…ĺ…ô t į…ôm…ôuan
-1.145564	en potensiel
-1.145564	end…ĺi me…ĺi
-1.145564	ene bet…ĺi
-1.145564	eni sava…ĺi
-1.145564	enoija…ĺ da
-1.145564	ens…ô…ĺk į…ômona ha…°…ôn
-1.145564	enta…ĺ…ô bain…ôz…ôi
-1.145564	ent įak įo en…ôŇč…°an…ôŇčz…ô ča
-0.4851839	ent įani k įaman
-1.145564	ent įaŇč m…ônse
-1.145564	en…ôŇč…°an…ôŇčz…ô ča n…ôŇčt į…ômona
-1.145564	es a ček įi
-1.145564	esai san…°a
-1.145564	esai…ĺaŇč udeiz…ôŇč
-1.990662	ese agolo
-1.990662	ese agoloson
-1.990662	ese al…ôŇč…ôz…ôn
-1.990662	ese bonp įu…ĺluhunai…°id…ôŇč
-1.990662	ese gan…ôŇčt į…ôn…ôz…ô
-1.990662	ese t įaŇč
-1.990662	ese …ôluz…ôŇč
-1.145564	esse sanu
-1.145564	eulibk įau a…ĺa
-1.145564	eus k įalamna
-1.145564	eze vol
-1.145564	eziz…ô moblib
-1.145564	e…°zamp…ôl olg įain…ô
-1.622685	e…ĺia boŇčnai
-1.622685	e…ĺia moblib
-1.622685	e…ĺia niseb
-1.145564	e…ĺiasim hala…°…ô
-1.622685	e ča k įubt įe
-1.622685	e ča selp įo…ĺni
-1.622685	e ča s…ôm
-1.145564	e čaibisin …Ļo
-1.145564	e če uan
-1.747624	fai č empia…ĺ
-0.7862139	fai č empija…ĺ
-1.747624	fai č ie
-1.145564	fan…ôŇčz…ô moblib
-1.145564	fa…ĺa…° t įanai
-1.145564	feisbuk ču liŇčk į…ôaidoŇčo
-1.145564	femuze </s>
-1.145564	fidam </s>
-1.145564	fo…ĺaima lad…ô
-1.145564	fo…ĺasi bigiangi…ĺi
-1.446594	fo…ĺmula gaz…ôŇča
-1.446594	fo…ĺmula n…ôŇč…ô
-1.145564	f…ô…Ļim…ôini n…ôi…°i ąaŇč
-1.145564	f…ô…ĺ…ô laod…ôn
-1.145564	f…ĺai z…ôŇčga
-1.145564	gadanai kui
-1.145564	gadan…ôiŇč k įon
-1.145564	gan…ôŇčt į…ôn…ôz…ô no
-1.145564	gasimba…ĺs…ôn s…ôbse
-1.145564	gaz…ô lak įim
-1.145564	gaz…ôz…ô voltmita…ĺ
-1.145564	gaz…ôŇča eus
-1.145564	ge kaneks…ôŇča
-1.145564	gehunanam </s>
-1.145564	gelaz…ôŇč ge
-1.145564	gesin lo
-1.145564	geze t įaŇčnai
-1.145564	gezesei bai
-1.145564	gezez…ôŇč n…ôŇčt į…ôŇčmona
-1.145564	gi n…ôŇčt į…ônm…ôna
-1.145564	giz…ôz…ôŇč t įaŇčnai
-1.145564	giz…ôŇč…ô f…ô…Ļim…ôini
-1.145564	gi čeon buze
-1.145564	godijamma kulom
-1.145564	gola beimmizi
-1.145564	gonaiz…ôd…ôŇč </s>
-1.145564	gozaibla o…ĺla
-1.145564	goŇčse moblib
-1.145564	gubun m…ônse
-1.145564	gunibo haig…ôn
-1.145564	gusununado sau ča…ĺi
-1.145564	g…ô z…ôŇč…°a
-1.145564	g…ôl…ôzi oŇčo
-1.145564	g…ôn…ôn…ôt į…ôk į…ôlaŇča buzi
-1.145564	g…ôso lak įi
-1.145564	g…ôss…ôs…ô </s>
-1.145564	g…ôs…ôlage azaŇča
-1.145564	g…ôs…ôlahi a…ĺ…ô
-1.145564	g…ôs…ôla…ĺieza unni
-1.145564	g…ôt į…ôŇč haŇčk įo
-1.145564	g…ô…Ļli …Ļa
-1.145564	g…ô…ĺl…ôn…ôz…ôŇč  čeha
-1.145564	g…ĺap į…ô e…°zamp…ôl
-1.145564	g…ĺap į…ô…ĺ </s>
-1.145564	ha n…ôŇčt į…ôm…ôna
-1.145564	habab…Ē…°…Ēbim…Ē k įeloma
-0.4851839	haban…ô zunzei	0.1354098
-1.145564	hae </s>
-1.145564	hagon be
-1.145564	haie </s>
-1.145564	haig…ôn mili
-1.145564	hakak įaipo su…ĻuŇča
-1.145564	hala z…ôŇč…°a
-1.145564	hala…°…ô bia
-1.145564	hamani </s>
-1.145564	ham…ôk į…ô haŇčnai
-1.145564	han be
-1.446594	hand…ĺed kolum
-1.446594	hand…ĺed seken
-1.145564	hanti k į…ôna
-1.145564	hant įi manema
-0.4851839	hant įiamn…ôi z…ôd…ô
-1.145564	haua hakak įaipo
-1.145564	haŇčai …°…ôg…ôdoma
-1.145564	haŇčaŇč ni čei
-1.145564	haŇčk įo bosau ča…ĺi
-1.622685	haŇčnai e…ĺia
-1.622685	haŇčnai nudau
-1.622685	haŇčnai n…ôz…ôu
-1.145564	ha…°…ôn z…ôŇč
-1.145564	ha…ĺa imita…ĺ
-1.145564	ha…ĺabosusiŇčz…ôŇč…°a …ĺe čaiti
-1.145564	ha…ĺazebla </s>
-2.048654	ha ča k įamani
-2.048654	ha ča k įobih…ôŇč…°a
-2.048654	ha ča maunai
-2.048654	ha ča maunaŇč…°on
-2.048654	ha ča maup įuŇčnai
-2.048654	ha ča maup į…ôim…ôz…ô
-2.048654	ha ča m…ônse
-2.048654	ha ča n…ôŇčt į…ôŇčm…ôn…ô
-1.145564	ha čajano za čai
-1.145564	ha čak įauz…ôŇčga a…ĺa
-1.145564	hent įa h…ônajan…ô
-1.145564	heŇčazeŇčz…ôl…ô kanek įam…ô
-2.291692	heŇčt įa be
-2.291692	heŇčt įa beni
-2.291692	heŇčt įa benip į…ĺai
-2.291692	heŇčt įa buŇčnai
-2.291692	heŇčt įa k įo
-2.291692	heŇčt įa k įobo
-2.291692	heŇčt įa maheni
-2.291692	heŇčt įa t įamet ča
-2.291692	heŇčt įa zu…ĺupsa
-2.291692	heŇčt įa z…ôŇč…°a
-2.291692	heŇčt įa …ôŇčnai
-2.291692	heŇčt įa …°a…ĺa
-2.291692	heŇčt įa …°ona
-2.291692	heŇčt įa …°…ĺak įozzi
-1.145564	heŇčt įai s…ôna…ĺnai
-1.145564	heŇčt įaia lea
-1.145564	heŇčt įaŇčanain…ô issi
-1.145564	himalai…°e beha
-1.145564	hoise meŇču
-1.145564	holanna manse
-1.145564	homesonli hu…ĺh…ôn…ôza
-1.145564	homit ča tih…ôn…ôeidoŇčo
-1.145564	hona aŇčg…ôn
-1.145564	honaidoŇč homit ča
-1.145564	honaieze </s>
-1.145564	hoŇčnamuda sali
-1.145564	hunda bep įla…ĺ
-1.145564	husunai z…ô
-1.145564	hu…ĺh…ôn…ôza </s>
-1.145564	h…ô mas…ôŇč
-1.145564	h…ôn blasenbidzi
-1.145564	h…ônae </s>
-1.145564	h…ônajan…ô be
-1.145564	h…ôn…ôŇčzaŇčnaizeb…ô n…ôŇčt į…ôm…ôn…ô
-1.145564	h…ôz…ôŇčga si…ĺiebala…ĺie
-1.145564	h…ôŇča nei
-1.446594	h…ôŇčna ae
-1.446594	h…ôŇčna z…ôŇčnai
-1.145564	h…ôŇčnai boŇčsidai
-1.145564	h…ôŇč…ônalonio boŇčse
-1.145564	h…ôŇč…°a da
-1.145564	ie mane
-1.145564	iema biosez…ôŇčnam…ô
-0.02996322	ikual tu	-0.07601701
-1.145564	ikualtu aia…ĺ
-1.145564	ikuas…ôn n…ô
-1.145564	ikuel tu
-1.145564	ikuenaga a…ĺabelnek įae
-1.145564	ikues…ôn n…ôŇčt į…ôŇčm…ôna
-1.145564	iku…ôs…ôn vi
-1.145564	ilectrik sarkit
-1.145564	ilektrik sarkit
-1.145564	ilekt…ĺo…ĺo t įaŇčai
-1.844534	imita…ĺ h…ôz…ôŇčga
-1.844534	imita…ĺ kamek įlaŇč…ôn
-1.844534	imita…ĺ manema
-1.844534	imita…ĺ p įu…ĺaŇčzab
-1.844534	imita…ĺ …°azeŇč…°a
-1.145564	imit…ô…ĺ g…ôss…ôs…ô
-1.145564	impiz…ô…°…ôn e ča
-1.622685	impo…ĺten </s>
-1.622685	impo…ĺten steiŇč
-1.622685	impo…ĺten zai
-1.145564	impo…ĺt…ôn </s>
-1.446594	ina bemoblib
-1.446594	ina moblib
-1.145564	indiksiŇč ni…°eziz…ôŇč
-1.145564	ine bek įi
-1.145564	inizamap įu z…ôŇč…°a
-1.145564	inkez…ô…°anna bek įai
-1.446594	inkiza…°…ôn </s>
-1.446594	inkiza…°…ôn t įama čaba…ĺi
-1.145564	inkiz…ôŇč…°on t įamet ča
-1.145564	inkuizaie o…ĺla
-1.446594	inkuizalamnai n…ôŇčt į…ôm…ôna
-1.446594	inkuizalamnai  čen…ôk įain…ô
-1.145564	intimezea so
-1.145564	intisin b…ôk į…ô
-1.145564	intizalamn…ô nizis…ôŇč
-1.747624	intu ai
-1.747624	intu sikstie
-0.7862139	intu ten	0.6622645
-1.145564	inv…ôrsli p…ĺopo…ĺs…ônel
-1.145564	inv…ô…ĺsli p…ĺ…ôpo…ĺs…ônel
-1.145564	in…ôiz…ôŇč  če
-1.145564	in č…ô…ĺs sa…ĺla
-1.145564	ipsani giz…ôŇč…ô
-0.4851839	is dai…ĺekli
-1.145564	issi z…ôŇč…°a
-1.145564	issinamani kusus…ôŇčga
-1.145564	istoa impiz…ô…°…ôn
-1.145564	itopip į…ô…ĺ…ô ek įin…ôn…ô
-1.145564	ittalini bi…°en
-1.446594	iunit k į…ôk į…ôi
-1.446594	iunit t įaŇča…ĺas
-1.145564	ius k į…ôl…ôŇčn…ô…°an
-1.145564	iva ikual
-1.446594	iz </s>
-1.446594	iz dai…ĺekli
-1.446594	iŇč…°…ĺazi s…ôŇčguni
-1.446594	iŇč…°…ĺazi  či
-1.145564	iŇč…ĺaz…ô </s>
-1.446594	je je
-1.446594	je manei
-1.844534	johai a…ĺ…ô
-1.844534	johai ladaŇč
-1.844534	johai n…ôŇčt įmona
-1.844534	johai n…ôŇčt į…ômona
-1.844534	johai seml…ôz…ôŇč
-1.145564	kamek įlaŇč…ôn ha
-1.145564	kaneks…ôŇča </s>
-1.145564	kanek įam…ô asin
-1.446594	kanek įlaoke </s>
-1.446594	kanek įlaoke niŇč…ôsta…ĺoz…ôŇč…°a
-0.4851839	karen ni
-1.446594	ka…Ļen h…ôn
-1.446594	ka…Ļen n…Ē
-1.145564	ka…ĺeks…ôn k įalamnaliŇč
-1.145564	ka…ĺem </s>
-2.321655	ka…ĺen bohenna
-2.321655	ka…ĺen b…ôhi
-2.321655	ka…ĺen h…ôŇča
-2.321655	ka…ĺen k…Į
-2.321655	ka…ĺen k įo
-2.321655	ka…ĺen mohid…ôn
-2.321655	ka…ĺen moŇčunamamuzinat į…ô
-2.321655	ka…ĺen m…ônse
-2.321655	ka…ĺen na
-1.360245	ka…ĺen ni
-2.321655	ka…ĺen nou…ô
-2.321655	ka…ĺen sula
-2.321655	ka…ĺen za
-2.321655	ka…ĺen …ô…ĺ…ôd…ôŇča
-1.145564	ka…ĺenn…ô t į…ô…°…ôn
-1.446594	ke </s>
-1.446594	ke mane
-1.446594	kelkuleson k į…ôn…ôŇčn…ônau
-1.446594	kelkuleson nez…ô
-1.145564	keta dot
-1.145564	keziz…ôŇč </s>
-1.145564	kibaiz…ôŇč s…ôu…ĺaig…ôn
-1.145564	kibi…°io zidenz…ô
-1.145564	kiobek įo buzi
-2.186956	kiu </s>
-0.7966765	kiu bai	-0.00169119
-2.186956	kiu da
-1.225547	kiu ikual	1.139386
-2.186956	kiu linn…ô
-2.186956	kiu manak įai
-2.186956	kiu se čai
-2.186956	kiu  čez…ô čai
-1.145564	ko …ĺau…ĺainoi
-1.145564	koa z…ôŇč…°a
-1.145564	kolom sa…ĺs
-1.145564	kolomam  česean
-1.145564	kolom…ôn…ô a…ĺa
-1.446594	kolsae a…ĺa
-1.446594	kolsae a…ĺ…ô
-1.145564	kolum m…ôŇčan
-1.145564	kom bek įa
-1.145564	koma tiuŇč…ôd…ô
-1.145564	komplisen k įont įai
-1.145564	komplit saŇč
-1.145564	konaik į…ôlaŇč…°…ôn mam…ôneiz…ôŇč
-1.145564	konak įan…ôm n…ôl…ôŇča
-1.145564	konse zodi
-1.145564	kontai </s>
-1.446594	kont įa poi
-1.446594	kont įa …°a
-1.923715	kont įai k įoak įi
-1.923715	kont įai la
-1.923715	kont įai mane
-1.923715	kont įai t į…ônai
-1.923715	kont įai zeula
-1.923715	kont įai z…ôŇča
-1.844534	kont įaini da
-1.844534	kont įaini eziz…ô
-1.844534	kont įaini sava…ĺi
-1.844534	kont įaini z…ô
-1.844534	kont įaini z…ôŇčga
-1.145564	kont įaio honaieze
-1.145564	kont įe na
-1.145564	konwak įalam nai
-1.145564	kopi ku…ĺo…ĺo
-1.145564	kos…ôn n…ôŇčdan
-1.145564	ko…ĺosen  česeboŇč
-1.145564	kui d…ônb…ôi
-1.145564	kuiz…ôhana z…ôbai
-1.145564	kuku…ĺm…ôin…ô a…ĺ…ô
-1.145564	kullizaha naŇčohai
-1.145564	kulmaeti bek įuz…ôŇč…°a
-1.145564	kulom n…ôŇčt į…ôm…ônai
-1.446594	kulum saz
-1.446594	kulum z…ôŇčga
-1.145564	kulumb…ô sat įi
-1.145564	kulumz…ôŇč n…ôŇčt į…ôm…ôna
-1.145564	kunt įeini …°izi…Ļo
-1.145564	kusno masno
-1.145564	kusus…ôŇčga ola
-1.145564	ku…ĺo…ĺo be
-1.145564	ku…ĺu sa…ĺs
-1.145564	k…Ē k į…ôl…ôm
-1.446594	k…Ēnfiuza da
-1.446594	k…Ēnfiuza m…Ēblib
-1.145564	k…Ēntai k…Ē
-1.145564	k…Ēnt įai </s>
-1.145564	k…ô n…ôŇčt į…ôm…ôna
-1.145564	k…ôpi k įalan…ôŇč
-1.145564	k…Į z…ôŇč…°a
-1.145564	k įaik įa k įai ča
-1.145564	k įai…ô…ĺ </s>
-1.145564	k įai ča suzin
-1.145564	k įalamna n…ôz…ôŇč
-1.145564	k įalamnaliŇč mezoi
-1.145564	k įalamnan la
-1.145564	k įalan…ôŇč ze
-1.145564	k įama ani
-1.446594	k įaman </s>
-1.446594	k įaman beni
-1.145564	k įamane maon…ô…°…ôn…ô
-1.622685	k įamani moblib
-0.6612751	k įamani molg įugul	0.1354098
-1.145564	k įamanimoz…ôŇč bes…ôŇčha čamonaz…ôŇč
-1.145564	k įandehiki kibi…°io
-1.145564	k įaneik į…ôl…ômn…ô voltmta…ĺda
-1.145564	k įantipu…ĺk į…ô k į…ô čai
-1.923715	k įant įi amma
-1.923715	k įant įi be…°eziŇč
-1.923715	k įant įi buŇčnai
-0.9623052	k įant įi da
-1.923715	k įant įi ko
-1.145564	k įant įip įu…ĺ sau…ĺai…°…ôn
-1.145564	k įa čai …°azib
-1.145564	k įeloma </s>
-1.145564	k įeze moa
-1.145564	k įilin…ôn…ôŇča ela
-1.145564	k įinaik…ô k į…ô čaz…ôŇč
-1.145564	k įizep įu…ĺ mita…ĺ
-1.145564	k įiz…ô k į…ôn…ôŇčs…ô
-1.145564	k įiz…ôz…ôŇča </s>
-1.747624	k įo </s>
-1.747624	k įo m…ôz…ôŇč
-1.747624	k įo n…ôŇčt į…ômona
-1.747624	k įo z…ôŇč…°a
-1.446594	k įoak įi as…ôŇč
-1.446594	k įoak įi n…ô…°…ônzae
-1.145564	k įobih…ôŇč…°a t įamitba
-1.145564	k įobo haie
-1.145564	k įobona lajo
-1.145564	k įola mana
-1.145564	k įolana ak įilanz…ô čai
-1.622685	k įom mibaŇče
-1.622685	k įom ruzt įaija…ĺi
-1.622685	k įom …ĺuzut įaija…ĺi
-1.145564	k įoma niun…ôd…ô
-1.145564	k įommili empija…ĺ
-1.145564	k įon  čaik įulk įu…ĺai
-1.622685	k įont įai </s>
-1.622685	k įont įai buŇča
-1.622685	k įont įai manema
-1.145564	k įont įaini …ôn…ôŇčt į…ôm…ôn…ô
-1.145564	k įop įuz…ôŇčnaize laot įaizudi
-1.145564	k įoze didau
-1.145564	k įozuŇčada ai
-1.145564	k įo…ĺes…ô n…ôŇčt į…ômona
-1.446594	k įo…ĺon t įahati
-1.446594	k įo…ĺon t įahat įi
-1.446594	k įo…ĺoni p į…ô
-1.446594	k įo…ĺoni t įahati
-1.446594	k įo…ĺonip į…ĺai gubun
-1.446594	k įo…ĺonip į…ĺai …°ubun
-1.145564	k įo…ĺosim se
-1.145564	k įo…ĺsim se
-1.145564	k įo…ĺ…ôis…ô n…ôŇčt į…ôm…ôna
-1.145564	k įu zuŇč
-1.145564	k įubt įe lamak įo
-1.145564	k įubut įamna hagon
-1.145564	k įufu…ĺmano meta…ĺ
-1.145564	k įuliŇčnai kiu
-1.446594	k įulum saz
-1.446594	k įulum sa…ĺs
-1.145564	k įuz…ôŇč…°a a…°se
-1.145564	k įuŇčnaz…ôda t įahati
-1.145564	k įu…ĺi…ĺnado  čenek įain…ô
-1.145564	k įu…ĺman…ô h…ô
-1.145564	k įu…ĺum t įahati
-1.145564	k įu…ĺuŇč t įahati
-1.622685	k į…ô lana
-1.622685	k į…ô ma čait
-1.622685	k į…ô n…ôŇčt į…ôm…ôn…ô
-1.145564	k į…ôh…ôz…ô čai m…ônip į…ĺai
-1.145564	k į…ôin…ô biohai
-1.145564	k į…ôk į…ôi bau
-1.145564	k į…ôlae n…ôŇčt į…ôŇčmona
-1.145564	k į…ôl…ôm nuŇčla
-1.145564	k į…ôl…ômla biohai
-1.145564	k į…ôl…ômn…ôi m…ônse
-1.446594	k į…ôl…ôŇč </s>
-1.446594	k į…ôl…ôŇč nai
-1.145564	k į…ôl…ôŇčn…ô…°an da
-1.145564	k į…ômanimauniz…ôŇčgan bik įun…ô
-1.145564	k į…ôna z…ôd…ô
-1.145564	k į…ônk įe zinini
-1.145564	k į…ôn…ômu meize
-1.145564	k į…ôn…ôz…ôi z…ô čai
-1.145564	k į…ôn…ôŇčn…ônau be
-1.145564	k į…ôn…ôŇčs…ô n…ôŇčt į…ômona
-1.145564	k į…ôt įai z…ôŇča
-1.145564	k į…ôz…ôŇča a…ĺ…ônn…ô
-1.446594	k į…ôz…ôŇč…°a moblib
-1.446594	k į…ôz…ôŇč…°a …ĺe čaiti
-1.145564	k į…ô…ĺni p į…ĺai
-1.622685	k į…ô čai a…ĺan…ôn
-1.622685	k į…ô čai n…ôŇčt į…ômona
-1.622685	k į…ô čai z…ô čai
-1.145564	k į…ô čaz…ôŇč k į…ô čai
-1.747624	la manse
-1.747624	la m…ônse
-1.747624	la p įo…ĺmula
-1.747624	la …ĺissi
-1.145564	laba s…ôŇča
-1.145564	labaŇč…°aio zesibaŇč
-1.145564	labod…ôŇč biohai
-1.145564	ladaŇč n…ôŇčt į…ômona
-1.145564	lad…ô a…ĺ…ô
-1.145564	lage belip įenis…ô
-1.145564	lais kont įa
-1.145564	lajo lais
-1.446594	laki </s>
-1.446594	laki ha…ĺazebla
-1.145564	lakin naz…ô
-1.145564	lak įa čai siks
-1.145564	lak įe naze
-1.622685	lak įi naza
-1.622685	lak įi n…ôz…ôŇč
-1.622685	lak įi Ňčaz…ô
-1.145564	lak įim n…ôz…ô
-1.145564	lak įi…°…ôn mobla
-1.145564	lama bek įe
-1.145564	lamak įo moblib
-1.145564	lamdem  ček įu
-1.145564	lamn…ô z…ô
-1.446594	lana ak…ôlaŇčz…ô čai
-1.446594	lana a…°…ôn
-1.622685	lanae a…ĺ…ô
-1.622685	lanae n…ôŇčt į…ôm…ôn…ô
-1.622685	lanae oblaz…ôŇč
-1.145564	lanazadaŇč a…ĺa
-1.145564	lanaŇč ča za
-1.145564	laod…ôn maulit įaod…ôn
-1.145564	laop įaini sevs…ôna…°…ôn
-1.145564	laot įaini s…ĺeŇč
-1.145564	laot įaizudi baŇč…ĺaizebula
-1.145564	laot įaiz…ô…°…ôn be
-1.145564	laot įai…°…ôn mobla
-1.145564	laot įeini s…ôbs…ôha…°…ôn
-1.145564	laot į…ôŇčs…ôz…ôŇč bediŇč
-1.446594	lasun boŇč…°a
-1.446594	lasun laŇč…ôla
-1.145564	laŇčga mek įu
-1.145564	laŇč…ôla </s>
-1.145564	laŇč…°a h…ôŇč…°a
-0.4851839	la…°e a…ĺa	-0.02604979
-1.145564	la…°i </s>
-1.145564	la…ĺaz…ôŇčgan </s>
-1.145564	la čona ča č ma čnao
-1.145564	la č…ôd…ô heŇčazeŇčz…ôl…ô
-1.145564	lea a…ĺne
-1.145564	lednamenan…ô heŇčt įaia
-1.145564	lek įa le…Ļisu…ĻuŇč
-1.145564	lenahaŇčna </s>
-1.145564	len…ô </s>
-1.145564	le…Ļisu…ĻuŇč k…Ēnfiuza
-1.145564	le čnan…ô anaha…°an
-1.145564	libonai l…ôd…ô
-1.145564	lige zeblab
-1.145564	ligele h…ôŇčna
-1.622685	lina </s>
-1.622685	lina anaga
-1.622685	lina naia
-1.145564	linaie a…ĺ…ô
-1.145564	linna simbol
-1.145564	linn…ô h…ôŇčna
-1.145564	lin…ô an…ôi
-1.145564	lionadehaŇčna…°a a…ĺ…ô
-1.145564	liŇčk į…ôaidoŇčo meo
-1.145564	liŇčk į…ônaidoŇčo watsa ču
-1.145564	lo  čit į…ôŇč
-1.145564	lobi p įi…ĺonmoi
-1.145564	loŇča a…ĺ…ôzodi
-1.446594	l…ô bek į…ôi
-1.446594	l…ô lanae
-1.145564	l…ôd…ô m…ôd…ôŇč
-1.446594	l…ô…°…ô </s>
-1.446594	l…ô…°…ô l…ô…°…ô
-1.145564	l…ô…°…ôn beni
-1.145564	l…ô…°…ô…ĺdinei </s>
-2.224745	ma </s>
-2.224745	ma a…ĺ
-2.224745	ma bi…°en
-2.224745	ma distens
-2.224745	ma ma…ĺi
-2.224745	ma moblib
-2.224745	ma muniz…ôŇč
-2.224745	ma m…ôn…ôiz…ôŇč
-2.224745	ma m…ôn…ôz…ôŇč
-2.224745	ma zabod
-2.224745	ma z…ôŇčga
-2.224745	ma …ôn…ôi
-1.145564	mabai ti
-1.145564	mabaide be
-1.145564	mablababna mabla ča
-1.145564	mablabap įius t įaŇčnala
-1.145564	mabla ča k įaik įa
-1.145564	maema </s>
-1.145564	maha…ĺauma t įahat įi
-1.145564	maheni kuiz…ôhana
-1.145564	mah…Ē…Ļmae </s>
-1.145564	mai ilectrik
-1.747624	maik…ĺo empija…ĺ
-0.3573439	maik…ĺo empija…ĺ…ô	0.0827456
-1.923715	mainas ait
-1.923715	mainas naintin
-1.923715	mainas siks
-1.923715	mainas t į…ĺi
-0.9623052	mainas uan
-1.446594	main…ôs ait
-1.446594	main…ôs siks
-1.145564	mak į…ôoŇča  čenis…ôn
-1.145564	mak į…ôz…ôz…ôŇč piksa…ĺ
-1.145564	mak į…ĺazino </s>
-1.145564	malabononaŇča </s>
-1.145564	malinnae…ĺ uan
-1.145564	mamaiti </s>
-1.145564	mamaneŇča bek įi
-1.145564	mamonamon kiu
-1.145564	mamu t įaha…°an
-1.145564	mamuzi d…ôm
-1.145564	mamuzia </s>
-1.145564	mamuz…ôŇč…°a moblib
-1.145564	mam…ônd…ôŇč a…ĺ
-1.145564	mam…ôneiz…ôŇč imita…ĺ
-1.145564	mam…ôŇčn…ôi lanae
-1.145564	mana n…ôsi
-1.145564	manahnei no
-1.145564	manak įai tu
-1.145564	manam biohai
-1.330282	mane </s>
-2.291692	mane ba…ĺbo…ô…°an
-2.291692	mane biohaissa
-2.291692	mane bo…ĺo
